tree
version=v4
num_class=1
num_tree_per_iteration=1
label_index=0
max_feature_idx=24
objective=regression
feature_names=Column_0 Column_1 Column_2 Column_3 Column_4 Column_5 Column_6 Column_7 Column_8 Column_9 Column_10 Column_11 Column_12 Column_13 Column_14 Column_15 Column_16 Column_17 Column_18 Column_19 Column_20 Column_21 Column_22 Column_23 Column_24
feature_infos=[-0.5:0.5] [-2.8484847545623779:1.6363632678985596] [-2.8461539745330811:1.7307690382003784] [-2.7999997138977051:19.799999237060547] [-1.1208714246749878:2.8475053310394287] [-1.0601266622543335:3.6455702781677246] [-1.0689656734466553:3.6927902698516846] [-1.1683417558670044:3.8743720054626465] [-1.0642683506011963:5.5900402069091797] [-5.1878328323364258:10657990] [-3.5924196243286133:59.954891204833984] [-3.1052155494689941:43.606586456298828] [-5.4647212028503418:11.683097839355469] [-3.8997211456298828:16.298824310302734] [-6.4705891609191895:54.886882781982422] [-1.6048611402511597:3.1082158088684082] [-1.4827917814254761:3.1405355930328369] [-2.7480754852294922:29.801338195800781] [-5.1878328323364258:10657990] [-1.6290205717086792:2.1702201366424561] [-0.80338704586029053:7.2446250915527344] [-0.56609886884689331:6.8258795738220215] [-1.1244555711746216:2.8385341167449951] [-1.1102879047393799:2.9846408367156982] [-1.1214029788970947:3.2041370868682861]
tree_sizes=2661 2768 2757 2766 2797 2766 2769 2772 2775 2784 2790 2787 2806 2774 2807 2780 2803 2801 2784 2789 2801 2814 2811 2783 2816 2772 2810 2785 2804 2787 2812 2810 2823 2828 2811 2823 2822 2800 2813 2809 2791 2813 2808 2816 2822 2813 2829 2816 2820 2823 2800 2828 2832 2828 2836 2839 2850 2856 2819 2837 2215 2829 2710 2286

Tree=0
num_leaves=31
num_cat=0
split_feature=7 17 24 7 7 17 0 20 17 9 17 15 17 12 17 11 3 20 7 12 12 20 7 17 0 20 9 6 6 13
split_gain=8157.26 2940.3 955.142 913.927 625.657 389.623 336.816 268.769 238.433 181.277 168.793 160.932 151.433 136.942 123.963 110.658 108.531 108.444 105.176 79.88 78.8805 77.3374 75.3501 57.1863 54.7778 53.3231 64.4588 53.0175 52.703 51.9726
threshold=-0.40326631069183344 -0.35900959372520441 0.25494608283042913 -0.8831658363342284 0.29522614181041723 -0.93490865826606739 -1.0000000180025095e-35 -0.27639299631118769 0.41926522552967077 0.17178188264369967 0.031947113573551185 -1.2927529811859129 -0.49969756603240961 -0.81745660305023182 0.41926522552967077 -0.071719892323017106 0.55000001192092907 0.23559259623289111 -0.6092965006828307 -0.64636844396591175 0.69062221050262462 1.1600991487503054 1.445979952812195 -0.98572123050689686 1.0000000180025095e-35 -0.28245650231838221 0.92402765154838573 -0.067398145794868455 0.32445141673088079 -0.48295460641384119
decision_type=2 2 2 2 2 2 2 2 2 2 2 2 2 2 2 2 2 2 2 2 2 2 2 2 2 2 2 2 2 2
left_child=3 2 7 11 8 22 18 -2 17 12 15 -1 13 -9 23 20 24 25 -5 -18 -6 -12 -4 -8 -7 -3 -27 -10 -19 -21
right_child=1 4 5 6 10 16 14 9 27 -11 21 -13 -14 -15 -16 -17 19 28 -20 29 -22 -23 -24 -25 -26 26 -28 -29 -30 -31
leaf_value=9.6658751002525136 9.9611443885379369 9.9002090559151839 10.231718232833062 9.7984984271003928 10.16812328070125 10.124480665815032 9.9925512314618672 10.186864023044681 9.8611634802034267 10.138218018718046 9.9646407794700291 9.7572092627684945 9.9697909875423942 10.048508471074479 9.8253415010212759 10.013569913343694 10.240018510791792 10.089424004490397 9.8524501780819342 10.173533980331591 10.036088651343666 10.007600234590541 10.345589005412275 9.9047381186744996 10.019918514378917 9.9470549251497467 10.030855168304264 9.9084674812827895 9.9768434134395658 10.094914838819697
leaf_weight=70 79 54 39 249 23 25 21 21 77 66 309 163 53 124 49 148 25 20 144 47 23 159 26 151 26 270 25 261 22 41
leaf_count=70 79 54 39 249 23 25 21 21 77 66 309 163 53 124 49 148 25 20 144 47 23 159 26 151 26 270 25 261 22 41
internal_value=9.94365 9.99961 10.095 9.81397 9.96036 10.1741 9.846 10.0422 9.92841 10.0664 9.99554 9.72964 10.0423 10.0687 9.89545 10.0348 10.1328 9.95498 9.81823 10.1602 10.1026 9.97926 10.2779 9.91551 10.0715 9.94582 9.9542 9.89766 10.0308 10.1372
internal_weight=2810 1963 572 847 1391 229 614 343 729 264 662 233 198 145 221 194 164 391 393 113 46 468 65 172 51 349 295 338 42 88
internal_count=2810 1963 572 847 1391 229 614 343 729 264 662 233 198 145 221 194 164 391 393 113 46 468 65 172 51 349 295 338 42 88
is_linear=0
shrinkage=1


Tree=1
num_leaves=31
num_cat=0
split_feature=7 17 23 7 7 17 0 20 17 14 14 17 9 17 17 7 23 15 7 7 6 20 7 20 9 13 8 9 5 6
split_gain=7363.2 2654.49 882.553 824.917 564.724 372.887 335.067 233.244 217.196 155.91 155.774 152.39 147.053 134.868 126.163 118.025 88.3764 87.2175 84.1622 78.7583 74.1547 88.7279 72.6076 70.34 67.8872 71.6046 66.1988 59.7831 55.6684 55.4129
threshold=-0.40326631069183344 -0.35900959372520441 0.23098366707563403 -0.94849243760108937 0.29522614181041723 -0.80920675396919239 -1.0000000180025095e-35 -0.27639299631118769 0.25762103497982031 0.066201183944940581 0.66190320253372203 0.031947113573551185 0.17178188264369967 -0.30553820729255671 -0.49969756603240961 -0.6092965006828307 0.52918663620948803 -1.2927529811859129 0.12939696758985522 1.445979952812195 -0.073667749762535081 -0.099552728235721574 0.90577891469001781 1.5425682067871096 -0.076304361224174486 -0.29184594750404352 -0.65308040380477894 -0.23608078807592389 0.27610763907432562 -0.067398145794868455
decision_type=2 2 2 2 2 2 2 2 2 2 2 2 2 2 2 2 2 2 2 2 2 2 2 2 2 2 2 2 2 2
left_child=3 2 7 17 8 19 15 -2 9 29 22 16 14 26 20 -5 -6 -1 -10 -4 21 -9 28 -13 -18 -26 -8 -12 -7 -3
right_child=1 4 5 6 11 10 13 12 18 -11 27 23 -14 -15 -16 -17 24 -19 -20 -21 -22 -23 -24 -25 25 -27 -28 -29 -30 -31
leaf_value=-0.26284682556838013 0.017679892636731965 -0.036826013359800368 0.26910306743905599 -0.14107455312091044 0.04758295111459223 0.15740877122525532 -0.050445674537375987 0.10903016395884157 -0.053092187632506609 0.06090978704762165 0.19828716486782466 0.026053282820001241 0.1817894308968751 -0.08223117555827919 0.027323291815402641 -0.085583907479548291 0.083753478477102475 -0.18955320221918576 -0.0040790280892828495 0.37578352124488662 0.082068549755714468 0.22423461091794153 0.18522803145676056 0.07758550623527144 0.23138074677843617 0.10493105988637859 0.030091053528234935 0.31057302259390629 0.05619037127247916 0.01616605173845782
leaf_weight=70 79 99 57 294 81 23 46 43 279 125 33 388 64 132 52 144 67 104 128 27 71 28 41 80 21 25 57 20 34 98
leaf_count=70 79 99 57 294 81 23 46 43 279 125 33 388 64 132 52 144 67 104 128 27 71 28 41 80 21 25 57 20 34 98
internal_value=0.00105902 0.0542264 0.144888 -0.122147 0.0169336 0.21927 -0.0970179 0.0929546 -0.0134197 0.0172501 0.172011 0.0503634 0.115969 -0.0487881 0.0941464 -0.122866 0.0876339 -0.219202 -0.0376948 0.303859 0.118545 0.154785 0.134303 0.0348876 0.116231 0.163143 -0.00584235 0.241258 0.0973246 -0.0104443
internal_weight=2810 1963 572 847 1391 235 673 337 729 322 151 662 258 235 194 438 194 174 407 84 142 71 98 468 113 46 103 53 57 197
internal_count=2810 1963 572 847 1391 235 673 337 729 322 151 662 258 235 194 438 194 174 407 84 142 71 98 468 113 46 103 53 57 197
is_linear=0
shrinkage=0.05


Tree=2
num_leaves=31
num_cat=0
split_feature=7 10 7 7 7 12 0 14 10 2 10 11 17 20 17 8 12 6 6 7 10 10 14 7 20 23 19 4 2 2
split_gain=6646.47 3312.82 753.227 611.568 513.575 299.22 246.934 167.167 153.995 152.601 141.042 135.273 135.099 129.39 107.654 106.805 101.514 99.2596 81.8772 73.1299 68.941 63.2111 58.2499 52.1885 51.4979 47.673 46.5604 46.1597 48.2907 40.9071
threshold=-0.40326631069183344 -0.37547868490219111 -0.86306527256965626 0.90577891469001781 0.12939696758985522 -0.14677944034337995 -1.0000000180025095e-35 0.57597970962524425 0.21402981877326968 -1.5576924681663511 0.083108689635992064 1.0694282650947573 -0.99931329488754261 -0.26905670762062067 0.41926522552967077 0.90810209512710582 0.6443178951740266 -0.24608153104782102 1.1598747372627261 -0.6092965006828307 -0.79760456085205067 -1.0394577980041502 0.12393352761864664 1.445979952812195 1.1235858798027041 -0.006044405046850442 0.30818560719490057 0.57800421118736278 -1.0000000180025095e-35 -2.0192308425903316
decision_type=2 2 2 2 2 2 2 2 2 2 2 2 2 2 2 2 2 2 2 2 2 2 2 2 2 2 2 2 2 2
left_child=2 3 9 5 10 7 19 12 16 29 22 18 -2 -7 21 -10 -6 -9 24 -4 25 -8 -3 -13 -5 -15 -27 28 -22 -1
right_child=1 4 6 11 8 13 14 17 15 -11 -12 23 -14 20 -16 -17 -18 -19 -20 -21 27 -23 -24 -25 -26 26 -28 -29 -30 -31
leaf_value=-0.26810615811859284 0.218789589680148 -0.015793412755771966 -0.12709177074621561 0.19518180738634139 0.073126253325042564 0.01705491156203718 0.051920189714654341 0.13600207270674444 -0.00042841754998616197 -0.14731858217886382 -0.046342694296161779 0.26141207126242605 0.082618632970865399 0.098498501558409987 -0.1072427773002209 0.052015369345586621 0.013554212171392542 0.2672055554891008 0.15570994795091711 -0.081307682918228277 0.11458111713486752 -0.03556076476596437 0.044249309570961209 0.37843228167268483 0.30634776503144506 0.20302719514513892 0.1146891033055682 0.15588851245164306 0.051108584454690513 -0.20558628469993684
leaf_weight=40 28 97 228 20 275 45 24 20 338 126 368 20 53 43 49 136 97 57 37 144 49 143 69 22 25 38 26 21 79 93
leaf_count=40 28 97 228 20 275 45 24 20 338 126 368 20 53 43 49 136 97 57 37 144 49 143 69 22 25 38 26 21 79 93
internal_value=0.00101064 0.0515242 -0.116046 0.151448 0.00929855 0.12476 -0.0847121 0.180526 0.0335334 -0.187102 -0.0290857 0.250017 0.129963 0.0954203 -0.0421244 0.014616 0.0576139 0.233412 0.211928 -0.109409 0.109164 -0.0229352 0.00914562 0.32358 0.257594 0.139907 0.167453 0.0869743 0.0755162 -0.224614
internal_weight=2810 1963 847 583 1380 459 588 158 846 259 534 124 81 301 216 474 372 77 82 372 256 167 166 42 45 107 64 149 128 133
internal_count=2810 1963 847 583 1380 459 588 158 846 259 534 124 81 301 216 474 372 77 82 372 256 167 166 42 45 107 64 149 128 133
is_linear=0
shrinkage=0.05


Tree=3
num_leaves=31
num_cat=0
split_feature=7 10 7 7 7 10 0 11 2 7 7 10 17 10 20 13 4 24 6 6 21 6 20 10 7 10 13 21 2 5
split_gain=5999.67 2991.12 680.2 552.333 463.523 250.28 205.956 160.233 159.394 141.614 140.156 127.296 100.29 98.4918 78.1193 71.6218 75.9732 79.4874 67.7452 65.0521 112.548 93.424 64.2413 62.3651 57.8276 54.5918 48.1731 48.1575 47.6363 89.422
threshold=-0.40326631069183344 -0.37547868490219111 -0.83793970942497242 0.8580402433872224 0.12939696758985522 -0.89622890949249256 -1.0000000180025095e-35 1.0694282650947573 -1.5576924681663511 -0.19723618775606153 0.75502511858940136 0.083108689635992064 0.41926522552967077 0.21402981877326968 -0.27639299631118769 -0.15670360624790189 0.30744905769824987 0.18839924782514575 1.1598747372627261 -0.092476516962051378 0.059090692549943931 0.43416929244995123 1.1235858798027041 -1.0394577980041502 -0.6092965006828307 0.016584881581366066 -0.5647786259651183 -0.33138185739517206 -1.0000000180025095e-35 0.13053800165653232
decision_type=2 2 2 2 2 2 2 2 2 2 2 2 2 2 2 2 2 2 2 2 2 2 2 2 2 2 2 2 2 2
left_child=2 3 8 5 11 9 24 18 -1 -2 13 -3 23 15 27 16 17 -6 22 -11 -21 -22 -5 -8 -4 -12 -9 -7 -16 -30
right_child=1 4 6 7 10 14 12 26 -10 19 25 -13 -14 -15 28 -17 -18 -19 -20 20 21 -23 -24 -25 -26 -27 -28 -29 29 -31
leaf_value=-0.2134030854361654 0.053383349686489938 0.0086876870199706028 -0.11874317020707724 0.17738950576671619 0.055277162605646628 0.074133154256380646 0.055786735681792744 0.25200946684132258 -0.13791771911868664 0.23650949853460501 0.095127673783327538 -0.044026188966503156 -0.10189155972659468 0.00057834155937130179 0.13111982280146409 0.011219530927963576 0.040543488609544806 0.19040604598149305 0.1433260789498724 0.099485805481995537 0.24678440941043911 0.1267843829199837 0.28795035519134043 -0.032882231651751116 -0.077245119530487863 0.046309490416080415 0.36188571555338384 -0.02699827395792528 0.038200993829585743 0.11771739986078905
leaf_weight=133 26 166 208 29 23 25 23 21 151 39 85 368 49 337 73 106 95 21 40 46 43 27 26 139 144 179 23 22 66 77
leaf_count=133 26 166 208 29 23 25 23 21 151 39 85 368 49 337 73 106 95 21 40 46 43 27 26 139 144 179 23 22 66 77
internal_value=0.000964475 0.0489574 -0.11025 0.143906 0.00883406 0.116605 -0.0783868 0.230926 -0.173349 0.161896 0.0318578 -0.0276316 -0.0392616 0.0181335 0.0853669 0.0422503 0.065853 0.120169 0.193848 0.18002 0.160797 0.200817 0.230173 -0.0202359 -0.101808 0.0620765 0.310249 0.0267321 0.098084 0.0811048
internal_weight=2810 1963 847 583 1380 444 563 139 284 181 846 534 211 582 263 245 139 44 95 155 116 70 55 162 352 264 44 47 216 143
internal_count=2810 1963 847 583 1380 444 563 139 284 181 846 534 211 582 263 245 139 44 95 155 116 70 55 162 352 264 44 47 216 143
is_linear=0
shrinkage=0.05


Tree=4
num_leaves=31
num_cat=0
split_feature=7 10 7 7 7 12 0 7 12 6 10 15 12 20 11 10 9 12 8 12 7 1 12 13 10 10 20 13 15 0
split_gain=5415.72 2700.42 614.846 500.078 418.394 253.432 226.016 126.481 119.07 115.264 114.894 111.593 108.392 107.809 90.7378 88.9264 83.803 81.779 72.8335 70.1164 69.4685 64.0611 63.8418 57.2935 49.2665 47.1714 47.1535 41.7146 39.9826 38.7148
threshold=-0.40326631069183344 -0.37547868490219111 -0.8831658363342284 0.90577891469001781 0.12939696758985522 -0.14677944034337995 -1.0000000180025095e-35 0.75502511858940136 -0.95621764659881581 -0.30250786244869227 0.083108689635992064 -1.2927529811859129 -0.86404100060462941 -0.26905670762062067 0.25264744460582739 0.21402981877326968 0.62446323037147533 -0.33889454603195185 -0.65308040380477894 0.62413433194160473 -0.6092965006828307 0.89393913745880138 -0.49388235807418818 0.12221116945147516 0.016584881581366066 -0.52360022068023671 0.69093826413154613 -0.24543670564889905 -0.20235357433557508 1.0000000180025095e-35
decision_type=2 2 2 2 2 2 2 2 2 2 2 2 2 2 2 2 2 2 2 2 2 2 2 2 2 2 2 2 2 2
left_child=2 3 11 5 10 9 20 15 -5 -2 29 -1 -11 -7 -8 19 26 22 -16 23 -4 -10 -14 -6 27 -20 28 -9 -15 -3
right_child=1 4 6 8 7 13 14 24 21 12 -12 -13 17 16 18 -17 -18 -19 25 -21 -22 -23 -24 -25 -26 -27 -28 -29 -30 -31
leaf_value=-0.22701991371353414 0.083263956171664766 -0.0064423731918901231 -0.11725706971586587 0.31729632614651082 0.07294259072627976 0.014059961368298849 -0.069825465388388172 0.11832712827511348 0.22663169718811038 0.26805546289471571 -0.041825477578529224 -0.15094504693419125 0.16634645722890928 0.13867971775937379 -0.051923751507318441 0.00054943210589559924 0.16902205012841898 0.23875776216449582 0.077981151165805257 0.00093795935523179909 -0.073385545758221579 0.13701808194187393 0.064197078211178912 -0.00044858741751250186 0.043995308892469651 -0.0094340803653351381 0.15133517462893786 0.045958581368728706 0.069415726471302605 0.047806838886221732
leaf_weight=70 35 121 249 28 134 45 111 52 66 31 368 163 44 24 48 337 36 24 28 78 144 30 24 33 179 34 25 33 171 45
leaf_count=70 35 121 249 28 134 45 111 52 66 31 368 163 44 24 48 337 36 24 28 78 144 30 24 33 179 34 25 33 171 45
internal_value=0.000921228 0.0465188 -0.104743 0.136735 0.00839491 0.1126 -0.0784631 0.0302693 0.225871 0.163923 -0.0262498 -0.173909 0.186747 0.0855979 -0.0379492 0.0172311 0.098143 0.159035 -0.00570358 0.0401469 -0.101217 0.198851 0.130514 0.0584186 0.0589763 0.0300253 0.0864504 0.0903769 0.0780329 0.00825356
internal_weight=2810 1963 847 583 1380 459 614 846 124 158 534 233 123 301 221 582 256 92 110 245 393 96 68 167 264 62 220 85 195 166
internal_count=2810 1963 847 583 1380 459 614 846 124 158 534 233 123 301 221 582 256 92 110 245 393 96 68 167 264 62 220 85 195 166
is_linear=0
shrinkage=0.05


Tree=5
num_leaves=31
num_cat=0
split_feature=7 10 7 7 7 10 2 10 17 10 3 10 0 12 14 7 12 12 19 11 7 14 7 7 2 9 14 5 5 17
split_gain=5054.51 2460.84 810.541 430.936 364.708 290.718 254.765 161.293 105.204 99.0974 95.0284 92.6973 92.2999 86.3339 81.3439 75.7326 71.6215 70.5024 91.1607 96.1997 68.3694 67.9472 58.2272 52.8757 50.9901 47.0745 46.0893 45.9075 45.5397 43.6132
threshold=-0.25502510368824 -0.45806619524955744 -0.67462310194969166 0.90577891469001781 0.40075376629829412 0.016584881581366066 -1.5576924681663511 -0.79760456085205067 0.25762103497982031 -0.021647330373525616 0.85000002384185802 -1.0394577980041502 -1.0000000180025095e-35 -0.95621764659881581 0.22299287468194964 1.5741206407546999 0.30804242193698889 0.19299848377704623 -0.19831957668066022 1.005842983722687 -0.47361806035041804 0.79008036851882946 0.8580402433872224 1.2148240804672243 0.67307677865028392 -0.2538392692804336 0.65396818518638622 0.12262662127614023 0.11155062168836595 0.13459278643131259
decision_type=2 2 2 2 2 2 2 2 2 2 2 2 2 2 2 2 2 2 2 2 2 2 2 2 2 2 2 2 2 2
left_child=2 3 6 7 8 11 -1 10 14 16 17 -4 -8 -5 -3 23 25 18 -2 -20 -13 27 -11 -15 -18 -6 -22 -9 -16 -24
right_child=1 4 5 13 9 -7 12 21 -10 22 -12 20 -14 15 28 -17 24 -19 19 -21 26 -23 29 -25 -26 -27 -28 -29 -30 -31
leaf_value=-0.19150680592442704 0.098557124804484877 -0.0040933012229665252 0.075979045808216267 0.31372188955431241 0.068846078882682349 -0.07806052540795079 -0.12506824918049139 0.039756674970252613 -0.024765924091419356 0.017370225026055661 0.25175375857504245 -0.046562842514111996 -0.064372149926849018 0.21561204153787777 0.025105785318096364 0.28249352929464244 0.013452153303973279 0.10226341067235684 0.1469258119855231 0.27064437825245546 -0.0057992232601663286 0.13716632106105056 0.12404972885457261 0.12331500414230814 0.098214222540274759 0.14001786173148165 0.075282336366296665 0.10411660430746845 0.093412797574902312 0.046062987079750824
leaf_weight=136 32 209 30 26 44 312 265 71 390 242 22 107 83 42 69 26 52 71 36 29 103 46 21 26 27 51 21 46 38 126
leaf_count=136 32 209 30 26 44 312 265 71 390 242 22 107 83 42 69 26 52 71 36 29 103 46 21 26 27 51 21 46 38 126
internal_value=0.000491412 0.0528308 -0.0857592 0.150159 0.0165405 -0.045493 -0.1334 0.12224 -0.00739025 0.0465545 0.153594 -0.00652759 -0.110629 0.232073 0.0140396 0.209127 0.077935 0.140567 0.168419 0.202531 -0.0172926 0.0855907 0.0324886 0.180628 0.0425722 0.107214 0.00794164 0.0651706 0.0494756 0.0573147
internal_weight=2799 1742 1057 473 1269 573 484 353 706 563 190 261 348 120 316 94 174 168 97 65 231 163 389 68 79 95 124 117 107 147
internal_count=2799 1742 1057 473 1269 573 484 353 706 563 190 261 348 120 316 94 174 168 97 65 231 163 389 68 79 95 124 117 107 147
is_linear=0
shrinkage=0.05


Tree=6
num_leaves=31
num_cat=0
split_feature=7 17 7 23 7 2 17 17 17 17 24 0 13 0 13 7 20 2 0 5 7 13 3 11 5 16 6 5 12 17
split_gain=4564.14 1747.07 687.931 478.417 411.268 229.922 214.683 186.746 175.469 156.486 116.413 91.7291 86.3085 83.2752 76.8401 77.3239 75.0213 87.3894 70.648 64.9064 63.5245 61.2527 54.8452 53.9988 64.351 52.568 48.645 47.1742 44.7489 42.0632
threshold=-0.27261303365230555 -0.53384089469909657 -0.67462310194969166 0.23621212691068652 0.40075376629829412 -1.5576924681663511 -0.27721932530403132 0.25762103497982031 0.28770481050014501 -0.99931329488754261 0.81070148944854747 1.0000000180025095e-35 -0.55800527334213246 -1.0000000180025095e-35 -0.52771446108818043 1.2148240804672243 -0.26905670762062067 -0.057692484930157654 -1.0000000180025095e-35 0.098892461508512511 0.12939696758985522 -0.48853506147861475 -0.44999998807907099 -0.098779413849115358 0.61946207284927379 1.5411092638969424 -0.13009406626224515 0.5656646490097047 -0.41303779184818262 -0.74775287508964527
decision_type=2 2 2 2 2 2 2 2 2 2 2 2 2 2 2 2 2 2 2 2 2 2 2 2 2 2 2 2 2 2
left_child=2 3 5 16 7 -1 22 18 10 27 23 12 -11 29 15 -12 -2 20 19 -3 26 -13 -4 24 -6 -10 -18 -5 -24 -7
right_child=1 4 6 9 8 13 -8 -9 25 11 14 21 -14 -15 -16 -17 17 -19 -20 -21 -22 -23 28 -25 -26 -27 -28 -29 -30 -31
leaf_value=-0.18193849964802272 0.017021439508186964 -0.034330351369684202 -0.027269846642439085 0.23886802886824704 0.14879399618843167 -0.051898809296513027 -0.066402694591231479 -0.024235572504311895 0.015020744898965793 0.27922082009900934 0.2213770645900846 0.076226066330144573 0.15217863418079391 -0.061157417144944673 0.083371963753590378 0.10064120034230151 0.14335873400240393 0.068207424914094469 0.037411740479517772 0.066940315013556781 0.19209586855162075 0.18185197649330931 0.094252753376367668 0.038406426437373374 0.030899302296303402 0.067530468374044458 0.050800874569604006 0.33709355201294172 0.0092099130003222129 -0.12483124358808229
leaf_weight=136 28 74 87 39 28 22 368 408 233 28 27 30 27 83 78 27 36 85 278 20 35 26 20 141 20 60 24 20 68 243
leaf_count=136 28 74 87 39 28 22 368 408 233 28 27 30 27 83 78 27 36 85 278 20 35 26 20 141 20 60 24 20 68 243
internal_value=0.000472242 0.0490806 -0.083389 0.144409 0.023219 -0.126735 -0.0447272 -0.000871312 0.0538256 0.20665 0.0793659 0.17125 0.217335 -0.105101 0.115428 0.161399 0.09344 0.105284 0.0247402 -0.012682 0.138298 0.125593 0.000836504 0.0541054 0.0999415 0.02581 0.106565 0.272763 0.0286796 -0.118817
internal_weight=2799 1772 1027 378 1394 484 543 780 614 170 321 111 55 348 132 54 208 180 372 94 95 56 175 189 48 293 60 59 88 265
internal_count=2799 1772 1027 378 1394 484 543 780 614 170 321 111 55 348 132 54 208 180 372 94 95 56 175 189 48 293 60 59 88 265
is_linear=0
shrinkage=0.05


Tree=7
num_leaves=31
num_cat=0
split_feature=8 10 8 8 23 10 17 10 14 0 17 10 21 15 14 14 21 13 8 9 6 17 16 23 5 5 13 16 24 8
split_gain=3810.69 2302.69 459.758 446.301 430.83 248.136 215.333 166.355 121.12 109.355 98.8535 82.1556 80.3117 76.5649 60.6177 58.8179 57.6593 56.7248 55.3434 55.0311 52.3668 47.3013 46.2729 45.7553 44.0074 107.235 43.1153 42.9116 42.3998 63.7159
threshold=-0.3931239247322082 -0.45806619524955744 0.49315951764583593 -0.83691638708114613 0.23621212691068652 -1.0632951855659483 -0.93490865826606739 0.10707350447773935 0.6721181869506837 -1.0000000180025095e-35 0.26689679920673376 -0.83407256007194508 0.027166168205440048 -1.2927529811859129 0.98208230733871471 -0.34434661269187922 0.85601076483726513 -0.88630360364913929 -0.16743030399084088 -0.10842246562242507 -0.01097183348610997 -0.25072188675403589 -0.63814538717269886 -0.24528614431619641 0.17009492963552478 0.5656646490097047 -0.54649570584297169 1.4359467029571535 0.81070148944854747 0.9356505572795869
decision_type=2 2 2 2 2 2 2 2 2 2 2 2 2 2 2 2 2 2 2 2 2 2 2 2 2 2 2 2 2 2
left_child=3 4 7 13 11 -5 24 15 16 21 17 18 -9 -1 19 23 -8 -4 -2 -13 -20 22 -7 -3 -6 -26 -18 -12 -19 -30
right_child=1 2 10 5 6 9 8 12 -10 -11 27 14 -14 -15 -16 -17 26 28 20 -21 -22 -23 -24 -25 25 -27 -28 -29 29 -31
leaf_value=-0.19407488027243158 0.069935550918751213 -0.06912034632835741 0.11925914460960821 0.064289335546356671 0.31540755644366514 -0.086037607004986111 0.077857779275019204 -0.053717691643909077 0.1971694345946218 -0.045342868402568265 0.013977436692602225 0.0076517392885863487 -0.016204292177630444 -0.13098192457860655 0.11672133850186975 0.027093840371825662 0.20678527115080594 0.035364535673013973 0.18628210427124831 0.081831044335514663 0.10426785475622841 -0.10457960764841806 -0.015301559707909551 0.003094446343619895 0.16272188182487046 0.31171494530275534 0.10714456719690275 0.058401046453957633 0.1598298331917222 0.056929431598927473
leaf_weight=74 47 31 41 33 20 79 57 244 71 186 258 60 345 145 33 224 21 119 34 43 48 253 33 74 30 21 24 69 20 62
leaf_count=74 47 31 41 33 20 79 57 244 71 186 258 60 345 145 33 224 21 119 34 43 48 253 33 74 30 21 24 69 20 62
internal_value=0.000453594 0.0374593 0.00603271 -0.0915178 0.12924 -0.0686552 0.1772 -0.0158514 0.146879 -0.0766367 0.041345 0.0850122 -0.0317596 -0.152403 0.0577536 0.0126144 0.111665 0.0655777 0.113644 0.0387176 0.13852 -0.0925531 -0.0652726 -0.018224 0.250701 0.22466 0.15411 0.0233815 0.054549 0.0822521
internal_weight=2799 1996 1487 803 509 584 244 918 173 551 569 265 589 219 136 329 102 242 129 103 82 365 112 105 71 51 45 327 201 82
internal_count=2799 1996 1487 803 509 584 244 918 173 551 569 265 589 219 136 329 102 242 129 103 82 365 112 105 71 51 45 327 201 82
is_linear=0
shrinkage=0.05


Tree=8
num_leaves=31
num_cat=0
split_feature=7 17 7 23 7 2 17 17 17 14 14 17 9 14 14 0 7 14 14 14 20 0 17 17 23 17 21 11 14 17
split_gain=3735.07 1413.7 602.66 383.705 320.952 187.249 183.229 152.871 150.808 141.567 110.53 86.8651 79.0973 84.3234 75.9523 67.8109 67.8084 57.9222 53.6228 53.4658 51.2655 50.0802 48.0637 46.9086 47.8186 39.3161 37.3869 36.8873 57.8417 36.4636
threshold=-0.25502510368824 -0.53384089469909657 -0.67462310194969166 0.23621212691068652 0.29522614181041723 -1.5576924681663511 -0.27721932530403132 -0.27110455930232996 0.25762103497982031 1.4509520530700686 0.68335619568824779 -0.99931329488754261 0.13326410204172137 -0.19447183609008786 1.1639491915702822 -1.0000000180025095e-35 1.1670854687690737 -0.29411819577217096 0.93277242779731762 0.098461110144853606 0.69093826413154613 1.0000000180025095e-35 0.07774680852890016 0.28770481050014501 0.48824590444564825 -1.2005550265312193 0.68167829513549816 -0.016965827904641625 0.22299287468194964 -0.74775287508964527
decision_type=2 2 2 2 2 2 2 2 2 2 2 2 2 2 2 2 2 2 2 2 2 2 2 2 2 2 2 2 2 2
left_child=2 3 5 12 8 -1 17 10 14 11 -6 25 13 -2 27 29 23 -4 -8 -14 -13 -22 -18 24 -9 -5 -26 28 -3 -7
right_child=1 4 6 9 7 15 18 16 -10 -11 -12 20 19 -15 -16 -17 22 -19 -20 -21 21 -23 -24 -25 26 -27 -28 -29 -30 -31
leaf_value=-0.16461191742758294 -0.029159338379380714 0.011571997158138014 -0.036745206680562761 0.17193950097729913 0.064631862227809075 -0.045341727263989488 -0.062795499773391758 0.016829267766358007 -0.028088791268040897 0.2880092104890502 0.17642334085801936 0.10351427879794213 0.0845219719893818 0.080877005601464838 0.1024771319495307 -0.055593607905539383 0.13021731235334355 0.022726967923465707 0.017313569231270667 0.18328341779225471 0.2351217983740766 0.13040830082504071 0.051549076526812204 0.014829711685849418 0.1261041249505323 0.2710696286453313 0.052280913557470277 0.001091677817679529 0.099371956034275136 -0.11323952456527853
leaf_weight=136 20 57 62 20 68 22 369 95 325 29 33 50 27 129 26 83 27 120 22 29 21 27 71 298 20 23 126 193 28 243
leaf_count=136 20 57 62 20 68 22 369 95 325 29 33 50 27 129 26 83 27 120 22 29 21 27 71 298 20 23 126 193 28 243
internal_value=0.000435145 0.0454277 -0.0737079 0.131416 0.0218276 -0.114788 -0.0389854 0.0441926 -0.00440804 0.186978 0.101346 0.165974 0.0852473 0.0660638 0.020893 -0.0952612 0.0351084 0.00243071 -0.058272 0.135991 0.139564 0.176718 0.0733846 0.0281275 0.0445366 0.225585 0.0625073 0.0132108 0.0406359 -0.107641
internal_weight=2799 1742 1057 375 1367 484 573 738 629 170 101 141 205 149 304 348 637 182 391 56 98 48 98 539 241 43 146 278 85 265
internal_count=2799 1742 1057 375 1367 484 573 738 629 170 101 141 205 149 304 348 637 182 391 56 98 48 98 539 241 43 146 278 85 265
is_linear=0
shrinkage=0.05


Tree=9
num_leaves=31
num_cat=0
split_feature=20 10 8 8 23 10 11 17 15 14 17 10 12 17 1 24 17 1 0 14 12 14 24 19 16 10 9 11 0 12
split_gain=3211.73 1828.05 490.221 295.758 272.231 231.603 195.812 155.763 122.927 78.5896 78.5889 74.832 70.6933 67.2915 63.1266 57.5728 54.3055 53.8949 49.4487 45.9213 43.4634 40.8526 37.9117 56.4524 36.5321 35.988 35.445 52.4369 48.4332 34.1647
threshold=-0.27639299631118769 -0.45806619524955744 -0.73005241155624379 0.49315951764583593 0.23621212691068652 -0.47740462422370905 1.1431703567504885 0.25762103497982031 -1.2927529811859129 0.68335619568824779 0.26689679920673376 0.25991743803024298 -0.44976650178432459 -1.1151041388511655 -0.25757583975791926 1.0436152219772341 -0.3113116174936294 0.13636349141597751 1.0000000180025095e-35 0.68335619568824779 0.8537232279777528 0.98208230733871471 -0.48875902593135828 -0.44488617777824396 1.4359467029571535 -0.78215494751930226 0.21613627672195437 -0.15091817080974576 -1.0000000180025095e-35 -0.067510321736335741
decision_type=2 2 2 2 2 2 2 2 2 2 2 2 2 2 2 2 2 2 2 2 2 2 2 2 2 2 2 2 2 2
left_child=2 4 8 7 12 13 9 26 -1 15 20 22 -2 -4 21 18 -10 -9 -6 -8 -5 -14 -7 -24 -12 -16 28 -28 -3 -11
right_child=1 3 5 10 6 11 19 17 16 29 24 -13 14 -15 25 -17 -18 -19 -20 -21 -22 -23 23 -25 -26 -27 27 -29 -30 -31
leaf_value=-0.17633285014092037 0.14119821186538811 -0.02546644753061857 0.09279314169248977 0.066993028780733099 0.1275050925234904 -0.059269395520544513 0.18773597710082013 -0.04956433943778446 -0.079614069192404713 0.21624988487912372 0.012566814006420618 -0.082569569869486381 0.07528710141407316 -0.0018436314692566328 0.081997269775729242 0.17554969973089291 -0.12326279979023298 -0.014212842199683193 0.050280133808821507 0.277938918231869 0.0034079930358760988 0.17750172823370988 0.035196717859846405 -0.043233851058996957 0.053558140643771249 0.032069779643559428 0.10486438340542226 0.019179066138663537 0.020911722780515941 0.14557063801920336
leaf_weight=74 45 85 23 211 40 151 27 194 130 30 258 219 20 100 69 24 163 244 44 34 31 20 32 80 69 77 24 70 166 45
leaf_count=74 45 85 23 211 40 151 27 194 130 30 258 219 20 100 69 24 163 244 44 34 31 20 32 80 69 77 24 70 166 45
internal_value=0.000418033 0.0394856 -0.0730059 0.00983338 0.123855 -0.0453245 0.160716 -0.0100969 -0.1186 0.134655 0.0372651 -0.0609517 0.084845 0.0158731 0.0711158 0.10704 -0.103947 -0.02989 0.0872213 0.238467 0.0588733 0.126834 -0.042907 -0.0207691 0.0212454 0.0557398 0.0150186 0.0411975 0.00518217 0.174159
internal_weight=2799 1827 972 1352 475 605 244 783 367 183 569 482 231 123 186 108 293 438 84 61 242 40 263 112 327 146 345 94 251 75
internal_count=2799 1827 972 1352 475 605 244 783 367 183 569 482 231 123 186 108 293 438 84 61 242 40 263 112 327 146 345 94 251 75
is_linear=0
shrinkage=0.05


Tree=10
num_leaves=31
num_cat=0
split_feature=7 10 15 12 7 24 0 10 11 13 7 12 10 14 10 12 10 15 7 20 6 15 12 0 20 10 14 24 10 11
split_gain=2882.9 1725.48 379.84 288.605 263.588 223.976 155.735 113.453 108.348 100.12 89.9813 88.6637 82.0079 76.3931 70.6964 70.3772 92.1294 69.419 65.7533 59.7154 76.2364 54.4186 47.8774 46.1087 52.1802 45.4634 44.6746 42.7152 55.8548 40.6292
threshold=-0.40326631069183344 -0.50093105435371388 -1.0979876518249509 -0.95621764659881581 0.28015074133872991 0.24145687371492389 -1.0000000180025095e-35 0.061177913099527366 -0.33936826884746546 -0.89993584156036366 1.5741206407546999 -1.2712612748146055 -1.0394577980041502 1.2445239424705508 -1.4275600910186765 -0.67427518963813771 0.19489075243473056 0.29099303483963018 -1.0879396200180051 0.74985855817794811 1.1786834597587588 -0.57956686615943898 0.90076988935470592 -1.0000000180025095e-35 -0.06348110735416411 0.57369661331176769 -0.049004329368472092 0.83048561215400707 0.016584881581366066 0.32164525985717779
decision_type=2 2 2 2 2 2 2 2 2 2 2 2 2 2 2 2 2 2 2 2 2 2 2 2 2 2 2 2 2 2
left_child=2 3 18 11 7 14 21 8 22 13 17 -2 -8 -6 -5 16 -11 -7 -1 -19 -21 29 -3 24 -16 -14 -10 -17 -29 -4
right_child=1 4 6 5 9 10 12 -9 26 15 -12 -13 25 -15 23 27 -18 19 -20 20 -22 -23 -24 -25 -26 -27 -28 28 -30 -31
leaf_value=-0.19476453219378353 0.15951054900513131 0.1394241602499903 -0.10047054664063373 0.12941345004475893 0.051964030126611493 0.21190509259431073 0.063411150477600806 -0.028107920120796312 -0.022677040457117902 0.13223827775459965 0.23576018012963332 0.27745755570275443 -0.024888900409092259 0.1579324577998252 -0.036247085565812437 0.0027217270099455519 0.023998168592002111 0.072444098188365044 -0.12311149962979895 0.16961872910723785 0.058627557330786895 -0.048313112396406628 0.03220047966281385 0.06955198371434039 0.071817720801435156 -0.084525431734521692 0.021789424863023349 0.073663758136101209 0.01604878797566326 -0.063056698103607686
leaf_weight=43 36 21 205 40 76 22 23 480 117 31 23 30 179 22 25 310 54 51 135 62 21 128 21 151 20 39 109 58 154 115
leaf_count=43 36 21 205 40 76 22 23 480 117 31 23 30 179 22 25 310 54 51 135 62 21 128 21 151 20 39 109 58 154 115
internal_value=0.000327413 0.0342923 -0.075427 0.116366 0.00711313 0.100853 -0.0585778 -0.0135565 0.012488 0.0290493 0.143057 0.213537 -0.0261209 0.0759406 0.0687739 0.0214592 0.0636417 0.129214 -0.140549 0.115453 0.141701 -0.0760171 0.0861349 0.0563133 0.0117236 -0.0356146 -0.00120856 0.01457 0.0318622 -0.0870645
internal_weight=2801 1934 867 481 1453 415 689 748 268 705 179 66 241 98 236 607 85 156 178 134 83 448 42 196 45 218 226 522 212 320
internal_count=2801 1934 867 481 1453 415 689 748 268 705 179 66 241 98 236 607 85 156 178 134 83 448 42 196 45 218 226 522 212 320
is_linear=0
shrinkage=0.05


Tree=11
num_leaves=31
num_cat=0
split_feature=7 10 2 23 7 0 10 19 20 11 10 11 6 10 7 0 14 24 8 10 7 7 10 14 21 21 17 7 0 2
split_gain=2602.42 1557.71 347.468 265.466 237.934 141.747 102.417 98.3866 98.8267 97.8457 89.3773 80.8098 76.466 72.0101 63.1232 53.6612 53.3382 49.7454 47.1215 43.4193 42.9618 46.8258 41.1215 40.3228 40.1937 48.5251 39.9505 39.6596 35.2695 56.41
threshold=-0.40326631069183344 -0.50093105435371388 -1.4038463234901426 0.23621212691068652 0.28015074133872991 -1.0000000180025095e-35 0.061177913099527366 0.20816764235496524 1.2142554521560671 -0.33936826884746546 -1.3979742527008054 0.096971027553081526 1.1598747372627261 -1.0394577980041502 -1.0879396200180051 1.0000000180025095e-35 1.2445239424705508 0.92580950260162365 -0.51430121064186085 0.57369661331176769 0.75502511858940136 0.98618093132972728 0.21685235202312472 -0.049004329368472092 0.46017959713935858 1.1561275720596316 0.58964297175407421 0.1746231094002724 -1.0000000180025095e-35 0.13461526110768321
decision_type=2 2 2 2 2 2 2 2 2 2 2 2 2 2 2 2 2 2 2 2 2 2 2 2 2 2 2 2 2 2
left_child=2 3 14 10 6 18 9 -5 15 -3 27 17 -10 -7 -1 -9 24 -6 -4 -15 -17 -22 -20 -11 -13 -26 -19 -2 -12 -30
right_child=1 4 5 7 11 13 -8 8 12 23 28 16 -14 19 -16 20 -18 26 22 -21 21 -23 -24 -25 25 -27 -28 -29 29 -31
leaf_value=-0.18504890325174531 0.16997073153782505 0.08185449006509328 -0.081737668271664204 0.23476854142705073 0.0050935399117244644 0.060254316594758078 -0.026702816671792896 0.15140929145910886 0.24929169446639587 -0.02154415658079438 0.022612133090095809 0.095703836857715496 0.13490712354229195 -0.021887334898576392 -0.11558364287201116 0.046774564275262005 0.12576311398838566 0.060501064631997864 -0.011195510291206632 -0.080309969577414306 0.17440085365873945 0.070210470897810795 -0.070030447213608946 0.020700952494696237 0.0099998894979072411 0.07514323636239012 0.016332021832838325 0.08100535849033437 0.086182998651956222 0.0075012584147292104
leaf_weight=43 31 42 319 30 316 23 480 55 29 117 48 32 31 174 147 37 24 95 52 39 21 23 70 109 82 44 112 22 126 28
leaf_count=43 31 42 319 30 316 23 480 55 29 117 48 32 31 174 147 37 24 95 52 39 21 23 70 109 82 44 112 22 126 28
internal_value=0.000314515 0.032585 -0.0716604 0.110567 0.00676074 -0.0548645 -0.012877 0.15005 0.136944 0.0118677 0.0755093 0.0276022 0.190599 -0.0235444 -0.13142 0.113113 0.0563031 0.0175961 -0.0716049 -0.0326406 0.0868934 0.120334 -0.0450239 -0.00114704 0.0456477 0.0328296 0.0366464 0.133358 0.0602479 0.0719238
internal_weight=2801 1934 867 481 1453 677 748 226 196 268 255 705 60 236 190 136 182 523 441 213 81 44 122 226 158 126 207 53 202 154
internal_count=2801 1934 867 481 1453 677 748 226 196 268 255 705 60 236 190 136 182 523 441 213 81 44 122 226 158 126 207 53 202 154
is_linear=0
shrinkage=0.05


Tree=12
num_leaves=31
num_cat=0
split_feature=20 17 2 17 23 17 24 20 19 19 14 16 13 20 12 12 16 13 17 5 5 12 9 14 23 14 21 16 5 24
split_gain=2219.41 1145.65 411.359 218.389 202.971 177.501 151.321 120.768 107.371 120.099 93.3367 90.8353 88.7687 83.1694 80.2813 57.5565 54.9543 53.7087 41.5556 37.7197 42.3733 37.4382 37.0035 36.3829 35.5593 34.482 33.2133 41.1349 43.1377 35.9925
threshold=-0.27639299631118769 -0.53384089469909657 -1.4038463234901426 0.26689679920673376 0.23621212691068652 -0.40521839261054987 0.76933455467224132 0.24398954212665561 0.20816764235496524 0.99656644463539135 1.4509520530700686 -0.64674961566925038 -0.91283077001571644 -0.49203610420227045 -0.62256124615669239 -0.83273842930793751 -0.99282994866371144 0.12221116945147516 0.87912979722023021 0.92325961589813244 1.1052215695381167 -0.035422086715698235 -0.39337645471096033 -0.22767385095357892 0.84598097205162059 0.57597970962524425 0.15953273326158526 -0.09942642971873282 -0.27927216887474055 -0.29991000890731806
decision_type=2 2 2 2 2 2 2 2 2 2 2 2 2 2 2 2 2 2 2 2 2 2 2 2 2 2 2 2 2 2
left_child=2 4 16 6 14 11 10 -5 -6 17 -3 -4 -8 -7 -2 -13 -1 -10 25 21 -21 -14 -17 -24 -9 -15 27 28 29 -16
right_child=1 3 5 7 8 13 12 24 9 -11 -12 15 19 18 26 22 -18 -19 -20 20 -22 -23 23 -25 -26 -27 -28 -29 -30 -31
leaf_value=-0.17533304266752611 0.14288009138039823 0.017301196876251913 -0.040417145884795114 -0.033653780380290099 0.25318982002539037 -0.078592759654242617 0.1663118354867974 -0.0016696998764013189 0.10224769521109428 0.24477975305119251 0.12461813177683907 0.09324741449830759 0.14536744036062915 -0.037659100163454223 0.026108959532970755 -0.032078264154617689 -0.11052798817096471 0.18579431340654856 -0.080857341213848036 -0.0090153337805131874 0.068631470688701082 0.058804444170258124 -0.0072727925693642078 0.06522570851728815 0.025867444793618577 0.024367352750196875 0.0048955064863611605 0.10147912723497968 -0.011617221989672938 0.1159803670302872
leaf_weight=43 37 524 120 249 23 281 24 300 105 22 21 22 21 204 22 42 148 24 51 29 44 32 36 33 192 25 23 58 23 23
leaf_count=43 37 524 120 249 23 281 24 300 105 22 21 22 21 204 22 42 148 24 51 29 44 32 36 33 192 25 23 58 23 23
internal_value=0.000302299 0.0335973 -0.0591904 0.0135953 0.113343 -0.0436755 0.0337279 -0.00528282 0.152195 0.136621 0.0214676 -0.00887951 0.0781965 -0.0593545 0.0769085 0.0195469 -0.125228 0.117962 -0.0400086 0.0612544 0.0377469 0.0934063 0.00482384 0.0273723 0.00906942 -0.0308581 0.0604079 0.0704896 0.0438737 0.0723094
internal_weight=2801 1796 1005 1436 360 814 695 741 174 151 545 253 150 561 186 133 191 129 280 126 73 53 111 69 492 229 149 126 68 45
internal_count=2801 1796 1005 1436 360 814 695 741 174 151 545 253 150 561 186 133 191 129 280 126 73 53 111 69 492 229 149 126 68 45
is_linear=0
shrinkage=0.05


Tree=13
num_leaves=31
num_cat=0
split_feature=7 10 15 23 7 10 10 11 13 1 20 10 10 7 14 7 13 14 10 7 13 14 14 17 10 7 6 14 14 9
split_gain=2123.24 1298.42 284.17 204.342 198.3 90.1512 89.7483 87.2025 83.0637 76.8478 74.1472 74.302 72.3523 67.427 59.8473 52.197 44.0325 42.4848 41.2786 40.7058 55.5057 64.009 39.6998 61.2916 50.7558 37.0202 36.9103 35.229 34.7236 35.221
threshold=-0.40326631069183344 -0.51545402407646168 -1.1857475042343137 0.23621212691068652 0.28015074133872991 0.061177913099527366 -1.0632951855659483 -0.33936826884746546 -0.89993584156036366 0.13636349141597751 1.2142554521560671 -1.0632951855659483 -1.3979742527008054 -0.62185928225517262 1.2445239424705508 1.0364321470260622 0.50555440783500682 0.71825316548347484 0.33167037367820745 0.50628146529197704 -1.0332586765289304 -0.069444917142391191 0.86184939742088329 -0.74775287508964527 -0.93909275531768788 0.1746231094002724 0.26489026844501501 -0.03008970711380243 -0.049004329368472092 -0.12319174781441687
decision_type=2 2 2 2 2 2 2 2 2 2 2 2 2 2 2 2 2 2 2 2 2 2 2 2 2 2 2 2 2 2
left_child=2 3 -1 12 5 7 -4 -3 14 -5 19 -12 25 27 -6 26 22 -15 -17 -11 -21 -22 24 -24 -14 -2 -10 -8 29 -9
right_child=1 4 6 9 8 -7 13 28 15 10 11 -13 16 17 -16 18 -18 -19 -20 20 21 -23 23 -25 -26 -27 -28 -29 -30 -31
leaf_value=-0.13414759197221401 0.15776302206937909 0.077509239923890305 0.023957840579244567 0.21641616896069801 0.046757999063272444 -0.024607737640947435 -0.07901615057443323 -0.050409118976129402 0.049896992875225227 0.042466824405670706 0.25171412933821702 0.13139618477757209 0.079354464566113225 -0.043885891359685104 0.14058091704190046 0.073083996826408149 0.11202410481300862 0.023052965061760498 0.01571268432624574 0.041130189606873549 0.055847486034388785 0.1556636203630801 0.035127832127453212 0.15094166614059637 0.0078365143476874944 0.071890906413081532 0.0060650918659490892 -0.047807628425169862 0.019028143682023293 0.0043353326633245029
leaf_weight=126 31 42 36 27 76 480 294 52 54 22 20 38 36 252 22 69 30 26 58 20 21 73 27 20 80 22 433 133 114 67
leaf_count=126 31 42 36 27 76 480 294 52 54 22 20 38 36 252 22 69 30 26 58 20 21 73 27 20 80 22 433 133 114 67
internal_value=0.000290127 0.0294388 -0.0647214 0.102042 0.00631791 -0.0115287 -0.0528929 0.0112826 0.0252484 0.136966 0.125777 0.173333 0.0706032 -0.0568271 0.0679931 0.0184078 0.0562932 -0.0376014 0.0469552 0.105346 0.117389 0.1335 0.0459429 0.0847323 0.030124 0.122415 0.0109448 -0.0693206 -0.000661961 -0.0195669
internal_weight=2801 1934 867 467 1467 755 741 275 712 221 194 58 246 705 98 614 193 278 127 136 114 94 163 47 116 53 487 427 233 119
internal_count=2801 1934 867 467 1467 755 741 275 712 221 194 58 246 705 98 614 193 278 127 136 114 94 163 47 116 53 487 427 233 119
is_linear=0
shrinkage=0.05


Tree=14
num_leaves=31
num_cat=0
split_feature=7 17 19 16 3 12 0 17 22 17 4 19 17 11 3 12 4 7 0 5 8 12 4 7 5 15 15 19 11 16
split_gain=1916.62 841.249 260.42 252.248 203.045 139.371 118.119 110.714 106.326 69.2569 72.0577 57.3807 53.9923 49.9411 49.8653 49.3478 57.291 44.5521 44.3214 49.8738 47.3139 49.5447 42.0578 41.6799 40.0161 61.0748 38.2621 37.2808 32.0095 31.8275
threshold=-0.40326631069183344 -0.53384089469909657 -1.1138417124748228 -0.13336523622274396 0.44999997317790991 -0.95621764659881581 -1.0000000180025095e-35 -0.21334382146596906 0.7868286967277528 0.30603602528572088 0.57800421118736278 0.24629555642604831 -0.40521839261054987 0.43871730566024786 1.0499998331069949 -0.62256124615669239 -0.4262122362852096 -1.0879396200180051 -1.0000000180025095e-35 0.087816465646028533 0.070064671337604537 -0.60919144749641407 -0.19641599059104917 1.1670854687690737 -0.092563286423683153 0.016496127471327785 -0.57956686615943898 0.12106974422931673 0.32164525985717779 0.32743786275386816
decision_type=2 2 2 2 2 2 2 2 2 2 2 2 2 2 2 2 2 2 2 2 2 2 2 2 2 2 2 2 2 2
left_child=2 3 17 15 9 11 26 14 13 10 18 -5 -8 -7 -6 -2 -17 -1 19 -3 21 -20 -18 29 25 -15 28 -11 -4 -9
right_child=1 4 6 5 7 8 12 23 -10 27 -12 -13 -14 24 -16 16 22 -19 20 -21 -22 -23 -24 -25 -26 -27 -28 -29 -30 -31
leaf_value=-0.16053015477004573 0.092170092671540735 -0.033254576752732613 -0.083771980296800719 0.25653955600272987 0.060130404992210756 0.14928548744633452 0.011170426538455965 0.059311813893525495 0.17209431319184204 -0.038167554976967936 0.090861178952384269 0.14691403440518486 -0.037643454136984535 0.17970950871761612 0.14205689059253551 -0.053039814302554493 0.06039624540938944 -0.10133200714436559 -0.036255474536159592 0.04719801008765831 -0.007227301904053806 0.042369372918352362 -0.016771317644423224 0.053950949402486306 0.059559301662233437 0.05828332592863842 -0.039571765442229789 -0.0074986951340272855 -0.05056492268033555 0.011915396881117072
leaf_weight=43 29 115 208 21 85 26 90 39 43 163 25 30 152 20 24 22 59 132 23 23 141 149 25 89 121 22 128 254 114 386
leaf_count=43 29 115 208 21 85 26 90 39 43 163 25 30 152 20 24 22 59 132 23 23 141 149 25 89 121 22 128 254 114 386
internal_value=0.0002801 0.0279743 -0.0614871 0.0907677 0.0106524 0.117596 -0.0476819 0.0325587 0.101019 -0.00462687 0.008398 0.192566 -0.0194718 0.0847393 0.0783288 0.0344443 0.0185323 -0.11599 0.00379666 -0.0197851 0.0142127 0.0318116 0.0373776 0.0228295 0.0743277 0.116514 -0.0628339 -0.019505 -0.0720503 0.0162894
internal_weight=2801 1934 867 418 1516 283 692 623 232 893 476 51 242 189 109 135 106 175 451 138 313 172 84 514 163 42 450 417 322 425
internal_count=2801 1934 867 418 1516 283 692 623 232 893 476 51 242 189 109 135 106 175 451 138 313 172 84 514 163 42 450 417 322 425
is_linear=0
shrinkage=0.05


Tree=15
num_leaves=31
num_cat=0
split_feature=7 10 12 7 12 10 7 10 23 22 14 9 14 12 24 2 5 13 9 10 12 14 10 14 15 17 7 7 22 7
split_gain=1791.95 1011.65 324.619 269.798 158.897 127.464 114.195 112.97 95.3383 85.9147 64.3661 62.7272 59.0312 58.6698 57.9241 126.837 76.4164 57.3606 47.5925 51.7463 40.7041 40.2332 35.9569 33.4276 46.242 33.2279 31.5066 30.7859 30.7663 30.2563
threshold=-0.33542712032794947 -0.37547868490219111 -0.95621764659881581 -0.93090450763702381 -1.1837658882141111 -0.79760456085205067 0.12939696758985522 0.10285050421953203 -0.019544445909559723 -0.66019588708877552 0.75835165381431591 0.1574920788407326 0.090203590691089644 0.42102883756160742 -0.1362410560250282 -1.0000000180025095e-35 0.13053800165653232 -0.52771446108818043 -0.69840037822723378 -1.092510938644409 -0.089168317615985856 1.1639491915702822 -0.75658777356147755 -0.23294092714786527 -0.20235357433557508 -0.74775287508964527 1.2412059903144839 -1.0565326213836668 -0.44865740835666651 0.14698497205972674
decision_type=2 2 2 2 2 2 2 2 2 2 2 2 2 2 2 2 2 2 2 2 2 2 2 2 2 2 2 2 2 2
left_child=3 2 4 27 11 8 21 9 -4 22 13 -2 28 25 23 -16 29 -18 -12 -20 -14 -3 -5 -7 -25 -10 -8 -1 -11 -17
right_child=1 6 5 7 -6 14 26 -9 10 12 18 -13 20 -15 15 16 17 -19 19 -21 -22 -23 -24 24 -26 -27 -28 -29 -30 -31
leaf_value=-0.13602793427962293 0.19470028525857785 -0.019169649414355658 0.043433018365292619 -0.012106938326831854 0.28999784402085538 -0.045915694760767761 0.011867702192980001 -0.063481807478767444 0.14558594644329792 -0.041915843038329514 0.092761439907473403 0.073958246280048892 0.082640389779667645 0.034097786136319704 0.17290223203093757 0.040186309693086203 0.10338370783603952 0.034519419470415473 0.22960723076172715 0.12360647828465672 0.0069057488915197311 0.047100440891946496 -0.061766852931203015 0.08724237031057773 -0.01275374855763688 0.071116658605902314 0.04583438066740865 -0.09369866057270447 0.01121961856768538 -0.036308878550000506
leaf_weight=71 20 449 61 49 24 21 769 360 40 89 23 24 24 32 22 22 58 64 26 22 68 24 146 20 27 25 75 117 39 31
leaf_count=71 20 449 61 49 24 21 769 360 40 89 23 24 24 32 22 22 58 64 26 22 68 24 146 20 27 25 75 117 39 31
internal_value=-0.000576581 0.0278444 0.0840008 -0.0560338 0.186414 0.0698584 0.00387263 -0.0429783 0.0972002 -0.0251691 0.116656 0.129271 -0.00372149 0.0898822 0.0461843 0.0599155 0.0455922 0.067357 0.152985 0.181485 0.0267852 -0.0157873 -0.0493264 0.00630138 0.0297865 0.117174 0.0148971 -0.109775 -0.025691 -0.00444611
internal_weight=2842 1879 562 963 68 494 1317 775 229 415 168 44 220 97 265 197 175 122 71 48 92 473 195 68 47 65 844 188 128 53
internal_count=2842 1879 562 963 68 494 1317 775 229 415 168 44 220 97 265 197 175 122 71 48 92 473 195 68 47 65 844 188 128 53
is_linear=0
shrinkage=0.05


Tree=16
num_leaves=31
num_cat=0
split_feature=7 10 12 8 12 10 10 7 4 21 16 2 5 9 16 10 12 19 20 0 12 17 12 5 2 0 7 10 19 9
split_gain=1617.58 913.461 293.129 246.378 143.414 116.038 115.096 103.06 94.7773 70.89 57.5829 95.3872 61.6655 56.6196 54.2223 52.1749 44.7224 41.5993 40.5228 33.1285 32.1764 30.5779 29.8692 26.6443 59.0359 25.8245 25.5859 24.4847 23.0063 26.1875
threshold=-0.33542712032794947 -0.37547868490219111 -0.95621764659881581 -0.71652972698211659 -1.1837658882141111 0.10285050421953203 -0.79760456085205067 0.12939696758985522 0.0066760552581399688 -0.56046721339225758 -0.14627160876989362 -1.0000000180025095e-35 0.13053800165653232 0.1574920788407326 -0.38527734577655787 -1.0632951855659483 0.57466188073158275 -0.21693175286054608 0.069244112819433226 -1.0000000180025095e-35 0.49396821856498724 -0.5493822693824767 -0.81745660305023182 0.50079119205474865 0.17307676374912265 1.0000000180025095e-35 0.60427138209342968 -1.0632951855659483 0.49376565217971807 -0.69069144129753102
decision_type=2 2 2 2 2 2 2 2 2 2 2 2 2 2 2 2 2 2 2 2 2 2 2 2 2 2 2 2 2 2
left_child=3 2 4 9 13 14 8 -3 27 -1 17 -12 18 -2 15 -5 23 -8 -13 -17 -14 -11 25 24 -10 -9 28 -4 29 -24
right_child=1 7 6 5 -6 -7 10 22 16 21 11 12 20 -15 -16 19 -18 -19 -20 -21 -22 -23 26 -25 -26 -27 -28 -29 -30 -31
leaf_value=-0.12854646202966716 0.18501370424654948 -0.014997106265529435 0.06478390711488502 0.045296676409864976 0.27555811832508231 -0.055570258039464575 0.051858849740690653 0.064621657540988905 0.16314747524228454 -0.048002282632179524 0.15058141027372407 0.056140971888060588 0.08330832772462532 0.070275677858051916 0.044221773845574741 -0.044812950014977315 0.069806302656459693 -0.029643156024558311 -0.033362800088271367 -0.0066551303292842635 0.029538162045873478 -0.08324380453980057 0.056952437852538118 0.16903720720906124 0.078223948377941388 0.0053311937939874909 0.021846471078840628 0.0018005252395528544 -0.011548730456097181 0.0067854621502735028
leaf_weight=73 20 473 44 28 24 279 26 51 36 86 24 20 78 24 39 121 44 39 34 108 44 229 29 32 49 29 321 24 164 250
leaf_count=73 20 473 44 28 24 279 26 51 36 86 24 20 78 24 39 121 44 39 34 108 44 229 29 32 49 29 321 24 164 250
internal_value=-0.000544199 0.0264585 0.0798202 -0.0532343 0.177142 -0.0324361 0.0663805 0.00367951 0.0923629 -0.0840271 0.0438825 0.0571654 0.0443201 0.122844 -0.0106024 -0.0189554 0.113284 0.00291042 -7.83355e-05 -0.0268497 0.0639968 -0.0736565 0.0141528 0.129518 0.1144 0.0432248 0.0110969 0.0426632 0.00329319 0.0120364
internal_weight=2842 1879 562 963 68 575 494 1317 229 388 265 200 176 44 296 257 161 65 54 229 122 315 844 117 85 80 764 68 443 279
internal_count=2842 1879 562 963 68 575 494 1317 229 388 265 200 176 44 296 257 161 65 54 229 122 315 844 117 85 80 764 68 443 279
is_linear=0
shrinkage=0.05


Tree=17
num_leaves=31
num_cat=0
split_feature=20 10 12 3 12 10 20 10 4 12 21 10 14 12 0 12 12 13 9 10 21 4 10 12 14 13 12 9 17 5
split_gain=1411.95 843.172 274.643 256.338 143.775 108.056 89.5011 85.7885 88.8157 77.431 69.9049 65.1997 48.0362 52.3862 45.7619 43.1609 41.9166 45.757 40.5254 45.4535 39.766 43.0152 37.3859 37.2007 48.7115 42.4684 42.0439 38.3767 36.7632 36.5026
threshold=-0.27639299631118769 -0.37547868490219111 -0.95621764659881581 -0.74999994039535511 -1.1837658882141111 -0.50093105435371388 -0.73507985472679127 -0.79760456085205067 0.0066760552581399688 -0.22504048794507978 1.1370476484298708 0.28461331129074102 0.75835165381431591 0.42102883756160742 1.0000000180025095e-35 -1.4651840925216673 0.61125460267066967 -0.59995815157890309 -0.69840037822723378 -1.092510938644409 0.017868781462311748 0.32501763105392462 0.25991743803024298 0.49396821856498724 0.34800617396831518 -0.89993584156036366 0.15677653253078463 0.025075079873204235 -0.30553820729255671 0.28401903808116918
decision_type=2 2 2 2 2 2 2 2 2 2 2 2 2 2 2 2 2 2 2 2 2 2 2 2 2 2 2 2 2 2
left_child=3 2 4 6 15 9 -1 8 -4 -5 11 16 13 -10 -11 -2 17 20 -14 -20 -3 -22 -7 24 26 -26 -9 -25 -8 -13
right_child=1 10 7 5 -6 22 28 23 12 14 -12 29 18 -15 -16 -17 -18 -19 19 -21 21 -23 -24 27 25 -27 -28 -29 -30 -31
leaf_value=-0.10666303954820672 0.06910091355368865 -0.0043000700408245022 0.035709913850442053 0.092807241224309306 0.28432979832328326 -0.022190556011359049 -0.039041980494263218 0.0010458807789301397 0.11064896355824741 -0.030981503828321696 0.026323385400353057 -0.031590602575298471 0.083548547243659121 0.030245345399694042 0.047019989510735688 0.17400673708660686 -0.012373746343581168 0.0096265504431054562 0.21217695649164134 0.11196283192386454 0.1125059069224236 0.03250984205887588 -0.05418429481660051 -0.00038352035064920904 0.023245991109671751 0.10532677112014772 0.086704958940004281 0.065512826163434276 -0.071993237310490704 -0.0045020813054283473
leaf_weight=143 20 24 59 28 21 229 135 45 60 53 274 189 23 31 29 20 133 253 25 22 32 36 153 66 21 66 21 33 233 365
leaf_count=143 20 24 59 28 21 229 135 45 60 53 274 189 23 31 29 20 133 253 25 22 32 36 153 66 21 66 21 33 233 365
internal_value=-0.000513756 0.0255114 0.0785017 -0.0482336 0.178328 -0.0224516 -0.0730379 0.0655548 0.0883965 0.0211721 0.00387696 -0.00207978 0.107639 0.0833769 -0.00331104 0.121982 0.0114431 0.0206401 0.138944 0.165712 0.0508297 0.0703384 -0.0350287 0.0455667 0.0610335 0.085621 0.0284666 0.0215754 -0.0599326 -0.0137565
internal_weight=2842 1839 533 1003 61 492 511 472 220 110 1306 1032 161 91 82 40 478 345 70 47 92 68 382 252 153 87 66 99 368 554
internal_count=2842 1839 533 1003 61 492 511 472 220 110 1306 1032 161 91 82 40 478 345 70 47 92 68 382 252 153 87 66 99 368 554
is_linear=0
shrinkage=0.05


Tree=18
num_leaves=31
num_cat=0
split_feature=7 10 12 8 12 10 10 7 14 4 7 18 16 2 16 19 15 22 14 12 19 18 10 14 14 15 19 17 6 10
split_gain=1319.75 745.317 239.48 203.362 117.427 97.7271 93.9721 85.827 77.9935 76.8772 59.5262 50.3337 49.4463 83.8089 48.4529 46.1989 78.0421 44.947 43.375 47.2681 38.213 36.5683 41.0049 34.7503 31.225 30.4149 26.2552 24.4058 24.0817 23.8482
threshold=-0.33542712032794947 -0.37547868490219111 -0.95621764659881581 -0.71652972698211659 -1.1837658882141111 0.23458340018987658 -0.79760456085205067 0.071608051657676711 0.076686728745698943 0.0066760552581399688 -1.0565326213836668 0.1574920788407326 -0.14627160876989362 -1.0000000180025095e-35 -0.39196950197219843 -0.46593795716762537 -0.50318941473960865 0.55297523736953746 0.75835165381431591 0.42102883756160742 -0.21693175286054608 -0.69840037822723378 -1.092510938644409 0.27486617863178259 0.74776747822761547 0.45375576615333563 0.80936002731323253 -0.5493822693824767 0.3652037531137467 -0.27917182445526117
decision_type=2 2 2 2 2 2 2 2 2 2 2 2 2 2 2 2 2 2 2 2 2 2 2 2 2 2 2 2 2 2
left_child=3 2 4 10 11 8 9 29 14 -4 -1 -2 20 -14 -5 16 -10 28 19 23 -8 -20 -23 -11 -9 -26 -19 -12 -15 -3
right_child=1 7 6 5 -6 -7 12 24 15 18 27 -13 13 17 -16 -17 -18 26 21 -21 -22 22 -24 -25 25 -27 -28 -29 -30 -31
leaf_value=-0.11755588351632307 0.16952570611564677 0.034883479831310418 0.038662706629249033 -0.043991543521047879 0.24914547756499769 -0.054335236654478675 0.048576182463845069 0.0077273739603350537 0.0066294137458776702 0.14206709829174055 -0.0442802182973627 0.061383657423292451 0.13949543860938046 0.036194078304937913 0.020673933564957253 -0.038369839348593705 0.10269144470024574 0.099260337020187703 0.079389204181633977 0.028737940052314583 -0.029542142031785776 0.20161037562170114 0.10639002236845266 0.065112334565057287 -0.0062395235417249404 0.045170762223046376 0.039643178013913587 -0.075419075730640939 -0.014659992792744221 -0.018448497323852658
leaf_weight=71 20 22 68 164 24 231 26 751 86 31 89 24 24 65 35 31 28 37 23 31 39 25 22 29 38 116 38 228 36 390
leaf_count=71 20 22 68 164 24 231 26 751 86 31 89 24 24 65 35 31 28 37 23 31 39 25 22 29 38 116 38 228 36 390
internal_value=-0.000484838 0.0239055 0.0721065 -0.0480779 0.160077 -0.0291812 0.0599571 0.00332913 -0.0122646 0.0834363 -0.0760543 0.110925 0.0396249 0.0519331 -0.0325884 0.015597 0.0303367 0.0398919 0.10228 0.0792185 0.001655 0.132033 0.157466 0.105126 0.0119441 0.0324568 0.0692139 -0.0667091 0.0180218 -0.0155808
internal_weight=2842 1879 562 963 68 575 494 1317 344 229 388 44 265 200 199 145 114 176 161 91 65 70 47 60 905 154 75 317 101 412
internal_count=2842 1879 562 963 68 575 494 1317 344 229 388 44 265 200 199 145 114 176 161 91 65 70 47 60 905 154 75 317 101 412
is_linear=0
shrinkage=0.05


Tree=19
num_leaves=31
num_cat=0
split_feature=7 10 7 7 14 10 14 7 16 2 3 3 14 16 2 1 13 9 22 10 4 14 6 6 13 2 9 14 11 13
split_gain=1191.34 673.016 186.917 145.889 111.966 78.1535 85.6941 77.4563 66.7017 84.5641 84.6274 63.6395 73.4144 52.7785 49.8714 49.0829 38.4877 35.7423 42.6182 34.6668 31.0795 27.5697 27.5051 52.354 26.3819 44.3263 24.046 30.0695 23.8266 27.0624
threshold=-0.33542712032794947 -0.37547868490219111 -0.93090450763702381 0.8580402433872224 -1.0000000180025095e-35 0.21685235202312472 0.076686728745698943 0.071608051657676711 -0.16969410330057141 -1.0000000180025095e-35 0.94999992847442638 0.94999992847442638 1.0690035223960879 -0.39196950197219843 -0.90384623408317555 -0.46969699859619135 -0.21595198661088941 -0.8155149221420287 0.42942668497562414 0.50754573941230785 0.49297264218330389 0.39670163393020635 -0.086206912994384752 0.042319720610976226 -0.37319950759410853 -0.63461551070213307 0.73019641637802135 0.79008036851882946 0.43095830082893377 0.46360246837139135
decision_type=2 2 2 2 2 2 2 2 2 2 2 2 2 2 2 2 2 2 2 2 2 2 2 2 2 2 2 2 2 2
left_child=2 3 -1 8 -5 6 13 -3 -2 22 17 21 -13 28 -8 24 19 -11 -19 26 -21 -6 -10 -24 -16 -26 27 -9 -4 -30
right_child=1 7 5 4 11 -7 14 16 9 10 -12 12 -14 -15 15 -17 -18 18 -20 20 -22 -23 23 -25 25 -27 -28 -29 29 -31
leaf_value=-0.09040926823779695 0.021368853817082735 -0.014800921821678852 -0.062466745141957214 0.016654740964772603 0.22057368128220617 -0.054905222486973264 -0.028209752880040934 0.01744925367291569 0.16283389090453809 -0.012416880375536038 0.13160807798381272 0.053004292404068891 0.15237282857379184 0.020988854595946762 0.0025300537418175444 -0.038334354519586028 0.0010804682983706806 0.062918805211019557 0.0053208443762780997 -0.031799536808977208 0.01760903677611662 0.14103195336986318 0.02845205802526047 0.13088232050718102 0.029858458702992696 0.12060502208945874 0.071630972456693462 0.057603171552080494 -0.011720833801404706 -0.054782034407838791
leaf_weight=188 118 412 120 26 21 298 68 212 20 29 28 38 37 33 27 23 455 121 44 47 98 26 20 34 38 21 33 60 77 70
leaf_count=188 118 412 120 26 21 298 68 212 20 29 28 38 37 33 27 23 455 121 44 47 98 26 20 34 38 21 33 60 77 70
internal_value=-0.000457288 0.022716 -0.0456758 0.0685195 0.111156 -0.0348076 -0.0222324 0.00316291 0.0532421 0.06592 0.0504096 0.131225 0.10223 -0.0385086 0.00533218 0.0263099 0.0113472 0.0386027 0.0476022 0.0217143 0.00154851 0.177071 0.112253 0.0931603 0.043681 0.0623921 0.0312813 0.026343 -0.045886 -0.0322835
internal_weight=2842 1879 963 562 148 775 477 1317 414 296 222 122 75 300 177 109 905 194 165 450 145 47 74 54 86 59 305 272 267 147
internal_count=2842 1879 963 562 148 775 477 1317 414 296 222 122 75 300 177 109 905 194 165 450 145 47 74 54 86 59 305 272 267 147
is_linear=0
shrinkage=0.05


Tree=20
num_leaves=31
num_cat=0
split_feature=8 10 19 24 20 0 14 17 12 2 22 24 12 14 13 10 14 12 16 0 10 9 14 17 9 4 22 23 23 11
split_gain=985.961 523.415 151.144 135.988 117.163 98.6209 97.0151 68.7637 70.2389 58.1536 47.2375 64.6082 85.5782 46.6596 43.3519 42.3149 37.6807 35.4662 47.712 35.1875 33.9964 49.8919 30.7818 29.1836 29.1218 44.1846 27.4488 26.2243 38.3971 25.7505
threshold=-0.3931239247322082 -0.45806619524955744 -1.1138417124748228 0.16411872208118441 0.22363352030515674 -1.0000000180025095e-35 1.4990503787994387 0.60445937514305126 -0.60919144749641407 0.25000000000000006 0.7868286967277528 1.4622302651405337 0.16677401214838031 1.1639491915702822 -0.11523048952221869 -0.92405426502227772 0.86184939742088329 -0.21592794358730313 -0.16969410330057141 1.0000000180025095e-35 0.84871420264244091 0.34302587807178503 -0.069444917142391191 -0.87498402595520008 0.17178188264369967 0.029163761995732788 0.49020308256149298 0.699619621038437 0.49477785825729376 0.21487486362457278
decision_type=2 2 2 2 2 2 2 2 2 2 2 2 2 2 2 2 2 2 2 2 2 2 2 2 2 2 2 2 2 2
left_child=2 3 -1 17 13 15 9 8 19 23 27 12 -12 20 16 -4 22 18 -2 -6 21 -3 -10 -5 -19 -26 -9 28 -11 -7
right_child=1 4 5 6 7 29 -8 26 14 10 11 -13 -14 -15 -16 -17 -18 24 -20 -21 -22 -23 -24 -25 25 -27 -28 -29 -30 -31
leaf_value=-0.08740761605647307 0.024323681743045354 -0.019595482305548865 0.019133501270371028 0.1642000598953916 0.10002596604715941 -0.028866535485954709 0.16361511521189981 -0.026350332324676276 0.056476120852763392 0.026553377142308311 0.19134159656975774 0.017553626391065631 0.063149050533566689 0.061691099568385976 0.00082045533645104703 -0.053399286554808092 0.072240806451520409 0.011134899463876807 0.10964538769251045 0.027120982564133474 -0.041930012974732728 0.015550825982180086 0.012114274900788259 0.084869453263472741 0.10420739865896611 0.0070436406445193601 0.0059906577899302565 -0.0045080099922727304 0.095713432767960238 0.0053926324352752044
leaf_weight=181 34 390 21 23 44 94 35 91 52 52 24 21 29 20 191 407 48 135 32 27 103 136 159 25 24 23 234 25 33 131
leaf_count=181 34 390 21 23 44 94 35 91 52 52 24 21 29 20 191 407 48 135 32 27 103 136 159 25 24 23 234 25 33 131
internal_value=-0.00126367 0.0176981 -0.0469656 0.0611655 0.00271798 -0.0357365 0.0859374 0.0149798 0.0262377 0.0741318 0.0612316 0.092164 0.121544 -0.0132579 0.018921 -0.0498251 0.0322446 0.0344518 0.0658707 0.072449 -0.0156584 -0.0104975 0.0230923 0.123248 0.0230007 0.0568812 -0.00305476 0.0403124 0.0535434 -0.00890434
internal_weight=2844 2010 834 515 1495 653 267 846 521 232 184 74 53 649 450 428 259 248 66 71 629 526 211 48 182 47 325 110 85 225
internal_count=2844 2010 834 515 1495 653 267 846 521 232 184 74 53 649 450 428 259 248 66 71 629 526 211 48 182 47 325 110 85 225
is_linear=0
shrinkage=0.05


Tree=21
num_leaves=31
num_cat=0
split_feature=20 10 15 10 21 14 10 2 0 6 3 9 12 14 0 9 2 6 15 14 3 9 14 11 10 20 11 1 15 4
split_gain=890.56 489.134 178.921 109.17 99.7011 78.139 77.7958 65.9825 57.6371 57.1753 54.9782 50.5459 49.1568 52.2556 51.6277 39.6637 85.6403 38.4503 64.6539 37.8051 41.1413 35.1374 52.6384 35.068 31.8397 30.987 29.523 28.8772 28.8611 33.3567
threshold=-0.27639299631118769 -0.63879939913749684 -0.74639856815338124 0.20743712782859805 0.059090692549943931 1.4990503787994387 -1.0394577980041502 0.67307677865028392 -1.0000000180025095e-35 -0.89184960722923268 0.74999997019767772 -0.73280850052833546 0.51578161120414745 0.86184939742088329 1.0000000180025095e-35 -0.076304361224174486 -0.096153985708951936 0.042319720610976226 0.12135699018836023 1.262607276439667 0.14999999478459361 -0.086170818656682954 1.0000000180025095e-35 0.38786147534847265 0.12880176305770877 0.21427314728498462 0.82352772355079662 0.075757492333650603 0.28543943166732794 0.26739285886287695
decision_type=2 2 2 2 2 2 2 2 2 2 2 2 2 2 2 2 2 2 2 2 2 2 2 2 2 2 2 2 2 2
left_child=2 4 9 7 19 11 -4 12 -8 -1 27 -6 13 17 -15 -14 -17 -3 -19 20 26 -9 -23 -11 -10 -18 -2 -5 29 -13
right_child=1 3 6 10 5 -7 8 21 24 23 -12 28 15 14 -16 16 25 18 -20 -21 -22 22 -24 -25 -26 -27 -28 -29 -30 -31
leaf_value=-0.087177949831618862 0.0070690248993886019 -0.0073107061383111032 0.069140880483809342 -0.029646391035947878 0.022603288669745591 0.16725673251712805 -0.037275197585033872 0.030543979161902574 0.011300208233704452 -0.062672378146662933 0.019976533390239002 0.090991959361934979 -0.025716864069248935 0.11311289508675421 0.023495209848566609 0.097142775994039088 -0.061197538285458819 0.11006170155910344 0.018466030440830391 -0.013931416456098758 0.099662348213872889 0.037020503406213524 0.1299410261028178 -0.029902763070197638 -0.030727534349202758 0.011435067978747607 0.069705842523559977 -0.0057531421830170001 0.077634262868008258 0.17556608592841164
leaf_weight=145 46 113 24 178 30 32 287 94 137 206 163 30 115 30 35 25 21 22 153 26 33 34 28 137 67 48 32 439 94 20
leaf_count=145 46 113 24 178 30 32 287 94 137 206 163 30 115 30 35 25 21 22 153 26 33 34 28 137 67 48 32 439 94 20
internal_value=-0.00119683 0.0194531 -0.0391027 0.00711499 0.0733054 0.0953053 -0.0185264 0.0211837 -0.022835 -0.0607989 -0.00583009 0.0819557 0.0131811 0.0245598 0.0650442 -0.00601611 0.0180345 0.0153859 0.0300658 0.0401434 0.0528557 0.0499547 0.0792068 -0.0496107 -0.00248682 -0.0106547 0.0328866 -0.012658 0.0942618 0.125204
internal_weight=2844 1841 1003 1498 343 206 515 718 491 488 780 174 562 353 65 209 94 288 175 137 111 156 62 343 204 69 78 617 144 50
internal_count=2844 1841 1003 1498 343 206 515 718 491 488 780 174 562 353 65 209 94 288 175 137 111 156 62 343 204 69 78 617 144 50
is_linear=0
shrinkage=0.05


Tree=22
num_leaves=31
num_cat=0
split_feature=7 10 7 7 10 24 15 10 12 11 13 12 20 19 6 11 7 24 24 9 6 13 10 19 6 1 7 10 0 6
split_gain=877.043 450.332 171.384 94.1513 71.4535 69.421 49.5567 44.378 35.8998 101.628 47.5437 34.9727 34.5458 78.6055 34.3506 53.0403 33.8616 33.4949 32.602 31.4966 40.8663 35.0907 28.1099 27.4263 31.2477 25.7487 24.9241 23.2816 22.9587 22.9068
threshold=-0.22487436234951017 -0.63879939913749684 -0.83793970942497242 1.0364321470260622 -0.11853891611099242 0.32464030385017401 0.28543943166732794 0.21685235202312472 0.51578161120414745 -0.18320354819297788 0.57684233784675609 -1.0158744454383848 -0.45714007318019861 -0.47831593453884119 0.57836997509002697 0.41321572661399847 0.70979899168014537 -1.0633993744850156 0.49055762588977819 0.13326410204172137 -0.092476516962051378 -0.32336780428886408 -0.51545402407646168 -0.080592710524797426 0.43416929244995123 0.56060582399368297 0.28391960263252264 0.65425866842269909 -1.0000000180025095e-35 -0.22727276384830472
decision_type=2 2 2 2 2 2 2 2 2 2 2 2 2 2 2 2 2 2 2 2 2 2 2 2 2 2 2 2 2 2
left_child=2 5 17 7 12 19 -7 8 9 18 -11 -5 22 -14 16 -16 -8 -1 -3 -2 -21 -22 -4 -10 -25 -20 27 -9 -19 -15
right_child=1 3 4 11 -6 6 14 26 23 10 -12 -13 13 29 15 -17 -18 28 25 20 21 -23 -24 24 -26 -27 -28 -29 -30 -31
leaf_value=-0.11436575497487332 0.036132944806105897 0.12469754966200015 -0.0013577800826548754 0.10511675714630984 -0.035732321187763295 0.17192885300934557 0.10418642915006893 -0.0012242744142550218 0.046155972861911199 0.016749885544826711 -0.050305169998808956 0.03482664120623654 0.072751367904836564 -0.025288997562271733 0.064542091725175818 0.14465720594402343 0.01996817732027939 -0.069103870695915212 0.016304277242219303 0.13363629658887913 0.096725123774666355 0.0061842552272442777 -0.040933718607590777 -0.044263574042649877 0.0023771219018881074 0.092409328883293118 0.0055501825740263385 -0.027589572599380437 -0.030476325590031807 0.021762908107179509
leaf_weight=35 113 24 92 20 502 20 20 163 25 286 29 157 39 76 40 44 30 210 24 23 21 22 88 48 141 21 271 173 48 39
leaf_count=35 113 24 92 20 502 20 20 163 25 286 29 157 39 76 40 44 30 210 24 23 21 22 88 48 141 21 271 173 48 39
internal_value=-0.00113437 0.0213918 -0.0353559 0.00880864 -0.0238087 0.0735806 0.098238 0.00380077 0.0134695 0.0226145 0.0105467 0.0428521 -0.0058674 0.0114926 0.0870821 0.106689 0.053896 -0.0682664 0.0775395 0.052296 0.0797968 0.0506397 -0.0207458 -0.0029199 -0.00945884 0.052057 -0.00571698 -0.0148183 -0.0619513 -0.00928378
internal_weight=2844 1715 1129 1382 836 333 154 1205 598 384 315 177 334 154 134 84 50 293 69 179 66 43 180 214 189 45 607 336 258 115
internal_count=2844 1715 1129 1382 836 333 154 1205 598 384 315 177 334 154 134 84 50 293 69 179 66 43 180 214 189 45 607 336 258 115
is_linear=0
shrinkage=0.05


Tree=23
num_leaves=31
num_cat=0
split_feature=7 14 7 7 12 11 20 9 14 16 11 9 11 9 14 19 24 5 1 11 19 12 24 5 15 12 19 20 20 11
split_gain=791.868 181.755 147.444 91.2688 91.0855 78.0788 72.4231 70.2856 48.718 47.7576 46.5085 41.4567 39.4669 53.884 45.3951 37.5669 36.8456 36.3016 35.9434 33.2589 32.2207 31.5598 30.2326 29.8256 41.4272 29.0115 33.0585 28.2715 27.7801 26.3474
threshold=-0.25502510368824 0.66190320253372203 -0.83793970942497242 0.12939696758985522 -0.95621764659881581 0.40594837069511419 0.74985855817794811 0.25616683065891271 -0.23294092714786527 0.18690241128206256 0.29455220699310308 1.0454655885696413 0.59850269556045543 -0.45357806980609888 1.4509520530700686 -0.22668967396020887 1.2981116771698 0.10522153973579408 0.40909081697463995 -0.66911101341247547 -0.82589453458786 -0.01269540563225746 -1.0633993744850156 0.21439877152442935 0.47421090304851538 0.21288350224494937 -0.26545003056526179 -0.25251910090446467 0.12443432956933977 0.8680352270603181
decision_type=2 2 2 2 2 2 2 2 2 2 2 2 2 2 2 2 2 2 2 2 2 2 2 2 2 2 2 2 2 2
left_child=2 3 22 15 9 11 7 17 -4 -3 25 -5 14 18 16 27 23 28 -14 -13 -12 -22 -1 -6 -25 -10 -27 -2 -7 -9
right_child=1 4 8 5 12 6 -8 29 10 -11 20 19 13 -15 -16 -17 -18 -19 -20 -21 21 -23 -24 24 -26 26 -28 -29 -30 -31
leaf_value=-0.10866376459598542 -0.0045408969383104146 0.059332646896590041 -0.035911025680975685 0.0078776334651565402 0.04211430399866152 0.0084150935794704528 0.10087575096866382 0.11981327156354854 -0.042894996917555564 0.16583698915712763 -0.0273273041784689 0.011351168159041469 0.013770218174944133 0.11275303788921415 0.069724516966820999 -0.013434676682936908 0.073824562379544309 -0.014644016761293888 0.089074658417564151 0.095909225278760335 0.048019150301144647 -0.0023609230767023086 -0.058856647081798712 -0.047037872249138489 0.015626130780200139 0.0049896895830626245 -0.062868148622806791 0.077175013486172339 0.085257304103171089 0.04499652190987332
leaf_weight=35 21 20 393 628 60 27 47 23 119 23 45 22 47 39 58 386 28 67 24 25 60 64 258 35 106 95 22 21 21 25
leaf_count=35 21 20 393 628 60 27 47 23 119 23 45 22 47 39 58 386 28 67 24 25 60 64 258 35 106 95 22 21 21 25
internal_value=-0.00107523 0.0197365 -0.0345185 0.0104099 0.0475478 0.0195784 0.0462052 0.0303585 -0.0233657 0.116669 -0.0111738 0.0112815 0.040021 0.0655215 0.0302105 -0.00853667 0.0201547 0.00907354 0.039385 0.0565432 0.00882409 0.0219953 -0.0648584 0.0126205 1.3488e-05 -0.0255132 -0.00777 0.0362846 0.0422449 0.0811247
internal_weight=2844 1753 1091 1313 440 885 210 163 798 43 405 675 397 110 287 428 229 115 71 47 169 124 293 201 141 236 117 42 48 48
internal_count=2844 1753 1091 1313 440 885 210 163 798 43 405 675 397 110 287 428 229 115 71 47 169 124 293 201 141 236 117 42 48 48
is_linear=0
shrinkage=0.05


Tree=24
num_leaves=31
num_cat=0
split_feature=8 14 19 11 0 6 12 6 11 12 11 18 0 14 2 5 12 13 8 5 18 18 12 6 11 3 23 23 21 11
split_gain=665.096 178.505 103.998 84.8936 76.2735 71.5278 70.0049 84.698 53.398 50.0008 45.7573 63.1498 44.0835 61.0595 42.6621 61.4113 35.808 37.6455 60.2104 61.5832 42.0878 61.8857 44.1175 32.0041 30.8654 29.7029 27.1901 19.6841 21.7887 19.6005
threshold=-0.3931239247322082 0.66190320253372203 -1.1138417124748228 1.1158886551856997 -1.0000000180025095e-35 -0.067398145794868455 -0.68449041247367848 -0.20846399664878842 0.096971027553081526 -0.95621764659881581 -0.41588610410690302 0.70682388544082653 1.0000000180025095e-35 0.076686728745698943 0.67307677865028392 0.92325961589813244 -0.53160849213600148 -0.68123826384544361 0.9785175919532777 0.22547472268342975 0.39592251181602484 -0.018653786741197106 -0.23232585936784741 0.10188088193535806 0.21487486362457278 -0.54999995231628407 0.080760810524225249 0.84598097205162059 -0.14969453960657117 0.21487486362457278
decision_type=2 2 2 2 2 2 2 2 2 2 2 2 2 2 2 2 2 2 2 2 2 2 2 2 2 2 2 2 2 2
left_child=2 3 -1 5 24 12 7 -3 -9 -10 27 14 -2 -14 -12 -16 -8 18 19 23 21 22 -19 -18 -4 -26 -5 28 -7 -6
right_child=1 6 4 26 29 10 16 8 9 -11 11 -13 13 -15 15 -17 17 20 -20 -21 -22 -23 -24 -25 25 -27 -28 -29 -30 -31
leaf_value=-0.072104920200028511 -0.026870638588878327 -0.0083598955501964431 -0.052706966445986103 0.023717754701023819 -0.023062223171484712 0.041969780753649287 -0.031207230386999546 0.039564798816816127 0.18836933329886918 0.084085511619394482 0.0046624643299565741 0.060747955702051971 -0.014858872736316057 0.073342407809704843 0.073989678570259912 0.0055236558131899812 0.025757585058164834 0.079772579131001456 0.1123961246770749 -0.025475604551744635 -0.031014412349646848 0.097280525123102826 0.013337463825301932 0.11459147554438261 -0.033973473531038446 0.023831369850598989 0.080752448538023325 0.015034973863931024 -0.01164963424238453 0.0068297657221243133
leaf_weight=181 259 20 255 39 94 20 21 20 24 23 423 77 60 29 61 71 20 29 37 27 29 32 180 21 147 26 46 120 322 131
leaf_count=181 259 20 255 39 94 20 21 20 24 23 423 77 60 29 61 71 20 29 37 27 29 32 180 21 147 26 46 120 322 131
internal_value=-0.00101913 0.0145543 -0.0385554 0.00616916 -0.0292387 0.00330134 0.0410465 0.0816796 0.108604 0.13773 0.00958487 0.0183276 -0.0164348 0.0138748 0.0124233 0.0372332 0.0320886 0.0356539 0.0610858 0.0329694 0.0257262 0.0325847 0.0226134 0.0715476 -0.0416282 -0.0252484 0.054701 -0.00236541 -0.00848803 -0.00564093
internal_weight=2844 2010 834 1527 653 1442 483 87 67 47 1094 632 348 89 555 132 396 375 105 68 270 241 209 41 428 173 85 462 342 225
internal_count=2844 2010 834 1527 653 1442 483 87 67 47 1094 632 348 89 555 132 396 375 105 68 270 241 209 41 428 173 85 462 342 225
is_linear=0
shrinkage=0.05


Tree=25
num_leaves=31
num_cat=0
split_feature=3 17 12 3 23 17 12 0 14 13 9 3 16 17 9 6 9 12 6 20 16 14 9 24 9 17 16 17 11 6
split_gain=655.939 367.967 152.885 141.753 101.899 100.077 83.5479 73.925 62.0198 52.159 47.8632 38.2082 37.8185 36.9148 36.3068 37.456 35.6851 34.1601 33.2337 32.4838 30.9682 36.291 43.9949 49.0127 32.9433 24.7867 23.6126 23.2557 25.1332 22.5553
threshold=-0.54999995231628407 -0.5796510875225066 -0.95621764659881581 0.3499999344348908 0.23621212691068652 0.3215248584747315 -1.0158744454383848 -1.0000000180025095e-35 1.6085547208786013 -0.63936439156532276 0.029953211545944217 -0.14999999478459355 -0.92208427190780629 1.1749374866485598 0.49587208032608038 1.4968652725219729 0.1077530011534691 -0.25686670839786524 0.48119123280048376 0.74985855817794811 0.56835570931434642 0.40519917011260992 -0.052944144234061234 -0.49280579388141627 0.74697411060333263 0.53354108333587658 0.62380501627922069 -1.1580587625503538 0.53179848194122326 -0.69122266769409169
decision_type=2 2 2 2 2 2 2 2 2 2 2 2 2 2 2 2 2 2 2 2 2 2 2 2 2 2 2 2 2 2
left_child=7 2 9 13 10 6 -5 12 14 -2 27 -12 -1 20 15 -8 -11 26 -19 -20 21 24 23 -23 -3 -26 -6 -4 -29 -9
right_child=1 3 4 5 17 -7 8 29 -10 16 11 -13 -14 -15 -16 -17 -18 18 19 -21 -22 22 -24 -25 25 -27 -28 28 -30 -31
leaf_value=-0.079577903282261789 0.056096406879954 -0.014913000975009628 0.053316644021184925 0.12294185792827959 0.025237513897624214 0.0015479417117240932 0.018025175470471989 -0.032325565947345904 0.10962479558784932 0.19358133443323267 0.01673643635016929 0.092708585522759332 -0.044632426331896319 -0.034295775223487777 0.08875319823892408 0.08697280326937612 0.10833759201347999 0.15288351933341221 0.030486031496341194 0.11266591334875507 0.034402793796463681 -0.0087951571897257504 -0.018932646973209417 0.06865013842462174 0.04279289465890531 -0.018873606607377292 0.092944277797024036 0.050347014375735272 -0.010406180021741186 0.0030352795023419104
leaf_weight=97 21 615 23 27 37 351 310 87 24 25 31 36 398 115 22 21 26 22 21 29 49 33 53 53 46 25 20 20 111 93
leaf_count=97 21 615 23 27 37 351 310 87 24 25 31 36 398 115 22 21 26 22 21 29 49 33 53 53 46 25 20 20 111 93
internal_value=0.00150708 0.0149208 0.056811 0.00477897 0.0431157 0.0210943 0.0380595 -0.0415244 0.0319362 0.123164 0.0224548 0.0577091 -0.0515051 -0.00767197 0.0266105 0.0224395 0.150519 0.078428 0.101395 0.0783799 -0.0041596 -0.00645992 0.0168144 0.038899 -0.0111849 0.021013 0.049203 0.00705686 -0.00106142 -0.0140365
internal_weight=2841 2166 422 1744 350 755 404 675 377 72 221 67 495 989 353 331 51 129 72 50 874 825 139 86 686 71 57 154 131 180
internal_count=2841 2166 422 1744 350 755 404 675 377 72 221 67 495 989 353 331 51 129 72 50 874 825 139 86 686 71 57 154 131 180
is_linear=0
shrinkage=0.05


Tree=26
num_leaves=31
num_cat=0
split_feature=7 10 15 12 3 10 12 7 10 14 10 7 14 10 9 12 13 4 10 9 9 14 9 10 13 12 13 10 12 14
split_gain=604.906 402.536 124.818 122.161 90.4123 81.7894 80.6097 56.1953 50.3392 42.8616 39.8796 38.4028 35.6163 34.8458 51.8127 34.5408 32.3014 30.065 29.9637 28.3404 26.1744 42.6486 29.3995 24.7185 36.1623 24.0398 23.7973 21.172 20.2174 20.1546
threshold=-0.22487436234951017 -0.37547868490219111 -0.75899064540863026 -0.86404100060462941 0.85000002384185802 -0.11853891611099242 -1.4651840925216673 0.8580402433872224 -0.65571781992912281 0.076686728745698943 -1.1305114626884458 -1.0012562870979307 0.84967258572578441 -0.58674529194831837 -0.39337645471096033 0.20034872740507129 -0.91283077001571644 0.87737175822258007 -0.70887765288352955 -0.78945025801658619 -0.66466027498245228 0.076686728745698943 0.33671833574771887 0.65425866842269909 0.20305056124925616 0.6443178951740266 -0.71583575010299672 -1.1305114626884458 -0.14677944034337995 -0.53734624385833729
decision_type=2 2 2 2 2 2 2 2 2 2 2 2 2 2 2 2 2 2 2 2 2 2 2 2 2 2 2 2 2 2
left_child=2 3 11 6 8 9 -2 23 20 -4 -6 -1 -7 -10 -15 -16 -9 -18 -12 -11 -5 27 -23 24 25 -3 -8 -22 -21 -13
right_child=1 7 5 4 10 12 26 16 13 19 18 29 -14 14 15 -17 17 -19 -20 28 21 22 -24 -25 -26 -27 -28 -29 -30 -31
leaf_value=-0.072284646056243337 0.034742950557534437 0.015583509137694785 -0.010187350963796978 0.01205154075159545 0.13802647577147945 -0.030434163538501414 0.099274314100521177 0.075883936280339848 -0.036319442994149929 -0.0087894031807924013 0.035419289346011178 -0.053337735528611874 0.032177811978516241 -0.013637624676986333 0.013404585251392417 0.08914878918505148 0.068785308595475561 0.010747823082217766 0.099883931069286586 0.08952520016527854 -0.0094073133221988028 0.060908444940034639 0.12089312223989344 -0.014343644333546429 -0.017148712179312343 -0.0095144672404845615 0.16634796639205277 0.047805455143424082 0.032716233315590669 -0.028994235702323148
leaf_weight=113 25 410 125 40 28 380 22 29 31 31 37 143 24 51 28 33 26 157 36 21 26 80 28 271 163 124 38 42 64 215
leaf_count=113 25 410 125 40 28 380 22 29 31 31 37 143 24 51 28 33 26 157 36 21 26 80 28 271 163 124 38 42 64 215
internal_value=0.00143507 0.0199937 -0.0272457 0.0555303 0.0453177 -0.0129425 0.110621 0.00357303 0.0335207 0.0100925 0.0871257 -0.0468153 -0.0266952 0.0104548 0.0234666 0.0545416 0.0268836 0.019054 0.0673716 0.0319788 0.0487562 0.0570582 0.0766037 -0.00152925 0.00344728 0.00974546 0.142044 0.0258749 0.0468989 -0.0387442
internal_weight=2841 1725 1116 545 460 645 85 1180 359 241 101 471 404 143 112 61 212 183 73 116 216 176 108 968 697 534 60 68 85 358
internal_count=2841 1725 1116 545 460 645 85 1180 359 241 101 471 404 143 112 61 212 183 73 116 216 176 108 968 697 534 60 68 85 358
is_linear=0
shrinkage=0.05


Tree=27
num_leaves=31
num_cat=0
split_feature=7 10 7 12 12 10 20 24 14 10 12 10 10 11 7 14 9 11 10 7 17 0 12 12 14 17 13 0 11 13
split_gain=546.046 363.447 113.491 110.292 72.7569 69.544 64.2321 51.0244 47.374 45.465 42.1273 36.0505 53.5198 35.4439 35.1324 34.3469 54.9267 49.4866 33.9475 33.6316 29.8122 28.1774 26.5209 23.7601 22.9325 22.151 21.2187 19.2922 23.6797 18.9283
threshold=-0.22487436234951017 -0.37547868490219111 -0.69723618030548085 -0.86404100060462941 -1.4651840925216673 -0.075702972710132585 0.74985855817794811 0.8214927911758424 -0.23294092714786527 -0.65571781992912281 -0.68449041247367848 0.025053114630281929 -0.24171993136405942 -0.016965827904641625 -1.0012562870979307 0.076686728745698943 0.17178188264369967 0.54155007004737865 -1.1305114626884458 0.88567838072776806 -0.65814396739006031 -1.0000000180025095e-35 0.78233635425567638 -1.0158744454383848 -0.23743414878845212 1.1749374866485598 -0.89993584156036366 -1.0000000180025095e-35 0.15984912216663363 0.21437324583530429
decision_type=2 2 2 2 2 2 2 2 2 2 2 2 2 2 2 2 2 2 2 2 2 2 2 2 2 2 2 2 2 2
left_child=2 3 14 4 -2 8 9 25 22 15 -10 12 -9 -11 -1 24 17 -17 -8 -20 -15 -16 -4 -6 -5 29 -13 -12 -29 -3
right_child=1 7 5 6 23 -7 18 11 10 13 27 26 -14 20 21 16 -18 -19 19 -21 -22 -23 -24 -25 -26 -27 -28 28 -30 -31
leaf_value=-0.068673608701751904 0.033012722457542942 0.0044152485676716407 -0.0349681289321278 0.039426507732071486 0.15834267249478556 -0.025857087512514917 0.12086847529953898 0 0.088221865663161647 0.055244280054710104 -0.011415399802192409 0.049553847682554962 0.091668570911674949 0.041122758133240428 -0.044529976372722421 0.08872133260166068 0.11244144317997756 0.017484235591235752 0.1021180889931232 0.036826924874420498 -0.021902462420796576 -0.012105559944629869 0.026416334935597009 0.090775284910865867 -0.021443320122135588 -0.026388389359727656 0.0054448163391296826 0.066693658128765668 0.011272241599124787 -0.013518160264277114
leaf_weight=113 25 618 73 40 39 374 30 27 22 31 49 32 39 25 278 37 37 72 30 59 74 89 23 21 25 87 184 27 68 193
leaf_count=113 25 618 73 40 39 374 30 27 22 31 49 32 39 25 278 37 37 72 30 59 74 89 23 21 25 87 184 27 68 193
internal_value=0.0013655 0.0189982 -0.0258841 0.0527653 0.105114 -0.0120183 0.0430606 0.00339493 0.00771954 0.0319813 0.0238967 0.0219464 0.0542816 0.00866492 -0.0442395 0.0463123 0.0597793 0.0417706 0.0747134 0.0589812 -0.00591111 -0.0366859 -0.0201972 0.134968 0.0159413 -0.00242704 0.0120225 0.0139802 0.0271297 0.00014019
internal_weight=2841 1725 1116 545 85 636 460 1180 262 341 166 282 66 130 480 211 146 109 119 89 99 367 96 60 65 898 216 144 95 811
internal_count=2841 1725 1116 545 85 636 460 1180 262 341 166 282 66 130 480 211 146 109 119 89 99 367 96 60 65 898 216 144 95 811
is_linear=0
shrinkage=0.05


Tree=28
num_leaves=31
num_cat=0
split_feature=7 10 15 12 12 10 10 2 10 10 14 14 9 4 2 14 14 6 12 14 10 0 14 6 11 14 17 19 6 6
split_gain=492.916 328.162 102.68 99.6337 85.3285 67.1222 61.0348 51.2508 41.1702 39.3796 35.6529 35.1251 47.4429 32.7114 53.9168 34.1683 32.2255 31.8482 25.3637 33.8157 25.2893 22.2923 22.0665 27.8238 21.2592 19.8392 19.5847 17.1298 16.7312 32.8415
threshold=-0.22487436234951017 -0.37547868490219111 -0.75899064540863026 -0.95621764659881581 -1.2712612748146055 -0.11853891611099242 -0.79760456085205067 0.67307677865028392 0.025053114630281929 -0.24171993136405942 0.076686728745698943 0.076686728745698943 -0.76358699798583973 0.57800421118736278 0.7499997913837434 -0.48420873284339899 0.84967258572578441 -0.92006278038024891 -0.0079463552683591825 0.34800617396831518 -1.1305114626884458 -1.0000000180025095e-35 1.4509520530700686 -0.01097183348610997 -0.016965827904641625 0.75835165381431591 -0.65814396739006031 -0.57580414414405812 -0.7727273404598235 -0.71003141999244679
decision_type=2 2 2 2 2 2 2 2 2 2 2 2 2 2 2 2 2 2 2 2 2 2 2 2 2 2 2 2 2 2
left_child=2 3 17 4 -2 10 11 -3 9 -9 27 20 -13 15 -15 -8 -7 -1 -12 -20 -5 -19 23 -14 -17 -10 -26 -4 -23 -30
right_child=1 7 5 6 -6 16 13 8 25 -11 18 12 22 14 -16 24 -18 21 19 -21 -22 28 -24 -25 26 -27 -28 -29 29 -31
leaf_value=-0.065271060629630492 0.047786846058575853 -0.002513639702740357 -0.036191843842107461 -0.0088246201237189379 0.156384005117917 -0.027632629286663959 -0.048086020320802184 0.0025549570662723041 0.0035328645506429823 0.081475788982082839 0.063354479708279551 0.020402646194782284 0.12233015901598208 0.10076924140950974 0.0088387309971071117 0.057457475289934515 0.031922246869730754 -0.042459143922003985 0.067322395304085514 -0.0065307992518512398 0.057657402865217366 0.0099111038421047307 0.13418524373526594 0.063061717822186156 0.036652770594839776 0.044890032565895133 -0.0035058656026869454 0.0034072033174502312 -0.077478924067892543 0.001119782665438974
leaf_weight=115 35 905 40 27 38 380 20 24 169 47 37 36 26 32 32 32 24 261 21 58 30 41 20 89 49 35 79 85 23 31
leaf_count=115 35 905 40 27 38 380 20 24 169 47 37 36 26 32 32 32 24 261 21 58 30 41 20 89 49 35 79 85 23 31
internal_value=0.00129977 0.0180528 -0.0245901 0.050139 0.104522 -0.0116163 0.0416972 0.00322603 0.022127 0.0549098 0.00925 0.0603096 0.0716556 0.0242671 0.0549675 0.0132992 -0.0240753 -0.04234 0.029212 0.0130981 0.026118 -0.0349022 0.0852608 0.0765996 0.0210289 0.0106715 0.0118449 -0.00924332 -0.0140651 -0.0323464
internal_weight=2841 1725 1116 545 73 645 472 1180 275 71 241 228 171 244 64 180 404 471 116 79 57 356 135 115 160 204 128 125 95 54
internal_count=2841 1725 1116 545 73 645 472 1180 275 71 241 228 171 244 64 180 404 471 116 79 57 356 135 115 160 204 128 125 95 54
is_linear=0
shrinkage=0.05


Tree=29
num_leaves=31
num_cat=0
split_feature=7 17 7 23 3 13 11 0 12 11 17 20 7 0 12 0 13 17 24 21 11 5 13 13 21 20 6 15 23 23
split_gain=445.001 223.415 91.9884 73.397 67.5193 62.7171 47.231 70.2838 43.0339 41.4188 40.78 34.1122 33.4793 48.3337 31.583 29.3577 28.9781 28.7255 40.7861 33.1169 28.6741 25.843 24.5071 23.6516 22.2723 26.4069 30.0814 24.1803 21.972 20.0969
threshold=-0.24497485905885694 -0.56383308768272389 -0.69723618030548085 0.23621212691068652 0.85000002384185802 -0.91283077001571644 1.0694282650947573 1.0000000180025095e-35 -0.53160849213600148 1.5180765986442568 0.65876266360282909 1.5425682067871096 0.20226132124662402 1.0000000180025095e-35 -1.3396541476249693 -1.0000000180025095e-35 0.25769194960594183 0.16750957071781161 0.49910075962543493 0.69141417741775524 0.98373013734817516 0.53718361258506786 -0.13534503430128095 -0.33997526764869684 0.50170525908470165 0.26499968767166143 0.31818181276321417 0.18822170794010165 0.699619621038437 0.6045362949371339
decision_type=2 2 2 2 2 2 2 2 2 2 2 2 2 2 2 2 2 2 2 2 2 2 2 2 2 2 2 2 2 2
left_child=2 3 15 8 17 11 7 23 9 -2 14 -6 13 -10 -4 -1 20 18 24 -20 -16 -7 28 -5 25 27 -27 -3 -8 -9
right_child=1 4 10 6 5 21 22 29 12 -11 -12 -13 -14 -15 16 -17 -18 -19 19 -21 -22 -23 -24 -25 -26 26 -28 -29 -30 -31
leaf_value=-0.046578954168204768 0.1122539510782052 0.0084900299092312212 0.055780182618171116 0.1305152723251225 0.038144617442467915 0.07252401507578754 0.11819080935720726 0.037120168282154413 0.0043616427954612591 0.021643605859200488 -0.034572910253964445 0.12899240791477362 -0.012506281002887563 0.081354485725999903 0.010681702663443399 -0.016667343280036759 -0.020937418263792584 -0.0049009796505573265 0.097723212949375596 0.025316506108751281 -0.03784930741525868 0.014408637356652879 0.15240565793431221 0.060001172998855851 -0.028136404758742406 0.079264515679908457 0.012217723107996986 -0.030684120632442996 0.055842377260788195 -0.028454244493449465
leaf_weight=374 27 199 21 23 20 21 29 26 49 24 141 22 59 35 228 106 203 622 20 76 35 213 20 26 47 25 51 49 29 21
leaf_count=374 27 199 21 23 20 21 29 26 49 24 141 22 59 35 228 106 203 622 20 76 35 213 20 26 47 25 51 49 29 21
internal_value=0.00123706 0.0170613 -0.0235081 0.0516337 0.00773388 0.0298195 0.0752275 0.0515545 0.0304187 0.0698374 -0.010899 0.0860437 0.0162864 0.03656 -0.00402883 -0.0399887 -0.0067462 0.00212959 0.0115034 0.0405393 0.00419227 0.0196742 0.104196 0.0933999 0.0039677 0.00864745 0.0344135 0.000720575 0.0872524 0.0077166
internal_weight=2841 1733 1108 368 1365 276 174 96 194 51 628 42 143 84 487 480 466 1089 467 96 263 234 78 49 371 324 76 248 58 47
internal_count=2841 1733 1108 368 1365 276 174 96 194 51 628 42 143 84 487 480 466 1089 467 96 263 234 78 49 371 324 76 248 58 47
is_linear=0
shrinkage=0.05


Tree=30
num_leaves=31
num_cat=0
split_feature=20 17 0 14 9 13 9 8 17 17 14 19 21 14 9 20 17 3 19 19 13 15 5 6 11 14 9 12 15 11
split_gain=413.297 217.87 94.9987 68.0452 79.9173 64.0698 53.4692 44.9993 41.7816 39.7894 45.9953 37.7133 35.0902 34.92 39.9263 27.1694 25.894 25.2034 23.8592 31.5169 29.395 23.7466 19.4832 20.2207 18.7147 18.8339 19.8534 18.3268 18.3216 34.5113
threshold=-0.27639299631118769 -0.21334382146596906 -1.0000000180025095e-35 1.4736736416816714 -0.90766224265098561 -0.7026517093181609 0.86569738388061535 -0.81459885835647572 0.30603602528572088 -0.69485202431678761 1.2182762026786806 -0.25144574046134943 0.067259635776281371 0.31777805089950567 -0.082905191928148256 0.57407015562057506 0.87912979722023021 -1.0000000180025095e-35 0.36528715491294866 0.13570643216371539 -0.45810289680957789 0.83019903302192699 -0.10838610306382178 -0.098746128380298601 0.66944530606269848 0.36081619560718542 -0.45357806980609888 -0.83273842930793751 0.4678874164819718 -0.12650917470455167
decision_type=2 2 2 2 2 2 2 2 2 2 2 2 2 2 2 2 2 2 2 2 2 2 2 2 2 2 2 2 2 2
left_child=2 3 7 6 -5 8 9 -1 12 10 13 -11 -3 -2 -15 22 -4 -8 19 -13 -20 -10 -7 -24 25 -9 -27 -26 -14 -30
right_child=1 5 16 4 -6 15 17 24 21 11 -12 18 28 14 -16 -17 -18 -19 20 -21 -22 -23 23 -25 27 26 -28 -29 29 -31
leaf_value=-0.055824885648152384 0.028629443102935404 -0.0039559559112760274 0.00060030047923900873 0.02618800705403981 0.13628310516597128 0.017895044135836164 0.045545129618834501 -0.036762989438740186 -0.004194184083396591 0.085099110689329266 -0.018157329445793517 0.016822049564485735 0.098954501381956828 0.051818586083282027 0.1189817614407621 0.0084787392064042851 -0.05118589270503128 0.123096474082697 0.049766021309403781 -0.030749757679112661 0.005695184967738254 0.045444936676653003 -0.034708852918517726 -0.0076894613112493187 0.032128505011792909 0.033201787878110366 -0.035381279730401331 -0.019331251470991392 0.098104293522105285 0.011944876780925697
leaf_weight=196 65 22 319 30 37 62 20 312 96 20 23 101 29 62 35 367 26 23 78 53 74 32 81 482 22 21 21 79 20 28
leaf_count=196 65 22 319 30 37 62 20 312 96 20 23 101 29 62 35 367 26 23 78 53 74 32 81 482 22 21 21 79 20 28
internal_value=0.00140892 0.0154537 -0.0245311 0.0395573 0.0871738 0.00316813 0.0337749 -0.0357718 0.0271265 0.0292422 0.0477771 0.0186971 0.0515106 0.0571744 0.0762018 -0.00231141 -0.00330164 0.0873315 0.0143144 0.000408158 0.0283612 0.00820235 -0.00865573 -0.0115912 -0.0271122 -0.0325324 -0.00097357 -0.00805205 0.0674076 0.0480779
internal_weight=2836 1840 996 621 67 1219 554 651 227 511 185 326 99 162 97 992 345 43 306 154 152 128 625 563 455 354 42 101 77 48
internal_count=2836 1840 996 621 67 1219 554 651 227 511 185 326 99 162 97 992 345 43 306 154 152 128 625 563 455 354 42 101 77 48
is_linear=0
shrinkage=0.05


Tree=31
num_leaves=31
num_cat=0
split_feature=7 10 13 0 14 10 3 7 10 12 14 5 12 14 12 1 9 15 13 19 7 21 21 11 13 5 14 12 14 21
split_gain=385.499 252.958 91.3427 83.1809 56.2084 54.579 47.8713 42.6218 40.0412 37.7097 33.3066 36.0795 29.155 34.4362 36.1266 27.6836 27.2631 23.9386 21.3282 37.8388 21.7397 23.9659 21.312 20.8464 21.1782 20.8582 20.6911 38.3155 28.0122 20.6907
threshold=-0.19723618775606153 -0.56516990065574635 -0.7026517093181609 -1.0000000180025095e-35 1.6085547208786013 0.31507417559623724 -0.84999993443489064 0.021356808021664623 0.11407585814595224 0.36284336447715765 1.262607276439667 -0.25395570695400232 0.75460034608840953 0.25013814866542822 0.15677653253078463 -1.0151515007019041 -0.84607490897178639 0.30127580463886267 0.23413169384002688 -0.28352013230323786 -0.49874369800090784 -0.37146812677383417 -0.44521656632423395 0.52011555433273327 -0.27346169948577875 -1.0000000180025095e-35 -0.025575495325028893 -0.95621764659881581 -0.39376437664031977 0.57336026430130016
decision_type=2 2 2 2 2 2 2 2 2 2 2 2 2 2 2 2 2 2 2 2 2 2 2 2 2 2 2 2 2 2
left_child=3 4 5 6 9 7 -1 -3 15 10 11 -2 13 29 -15 -5 -6 -4 19 20 -17 -22 -20 25 -25 -11 28 -28 -13 -9
right_child=1 2 17 8 16 -7 -8 12 -10 23 -12 26 -14 14 -16 18 -18 -19 22 -21 21 -23 -24 24 -26 -27 27 -29 -30 -31
leaf_value=-0.046027611184972457 0.11245937925209278 -0.0080648146185678306 -0.0099973485320756991 -0.018867626684844568 0.060326540225477357 0.0019571794777586129 -0.019641677283633363 0.1385578646387787 -0.025241529548777682 -0.03165678204932889 0.0022217333346486565 0.064362910531143444 0.009300098068641063 0.028363918633780974 0.099902414224403657 0.043760907780089953 0.13968669988912535 0.0055159138974343758 0.04031243518513826 0.091054920917052529 -0.046881454078415728 0.017561710621057162 -0.018783381238001176 0.085587739966698551 0.017419338813292145 0.026047264353927138 0.12447915956445409 0.051713057319501127 -0.017005689357411806 0.067020794537974812
leaf_weight=323 32 29 428 80 20 104 370 22 152 26 25 21 26 61 25 45 25 593 20 20 20 51 63 20 27 39 22 106 21 20
leaf_count=323 32 29 428 80 20 104 370 22 152 26 25 21 26 61 25 45 25 593 20 20 20 51 63 20 27 39 22 106 21 20
internal_value=0.00134048 0.0164997 0.00601884 -0.0210755 0.0521765 0.0309356 -0.031952 0.0473669 -0.00434843 0.0451556 0.0568811 0.0636167 0.0578362 0.0676412 0.0493099 0.00626098 0.104738 -0.000982643 0.0154676 0.0276555 0.0166124 -0.000561376 -0.00445188 0.0213165 0.0466535 0.00287567 0.0543326 0.0643462 0.0236161 0.104851
internal_weight=2836 1692 1308 1144 384 287 693 183 451 339 227 202 154 128 86 299 45 1021 219 136 116 71 83 112 47 65 170 128 42 42
internal_count=2836 1692 1308 1144 384 287 693 183 451 339 227 202 154 128 86 299 45 1021 219 136 116 71 83 112 47 65 170 128 42 42
is_linear=0
shrinkage=0.05


Tree=32
num_leaves=31
num_cat=0
split_feature=7 10 13 0 14 10 7 7 10 12 13 14 12 11 12 13 12 14 1 20 17 21 18 0 5 13 8 4 10 14
split_gain=348.006 228.404 82.4876 75.08 50.7498 49.2818 44.467 38.4985 36.1444 34.0329 32.6308 50.4941 43.4966 39.8937 26.3177 32.079 26.6029 25.364 24.9936 22.7111 28.2242 37.4148 21.8528 21.0838 27.7809 30.0471 20.9384 31.9249 19.9806 19.9992
threshold=-0.19723618775606153 -0.56516990065574635 -0.7026517093181609 -1.0000000180025095e-35 1.6085547208786013 0.31507417559623724 -0.86306527256965626 0.021356808021664623 0.11407585814595224 0.36284336447715765 -0.071667257696390138 1.1087644100189211 -0.58847025036811818 0.80381911993026745 0.75460034608840953 -0.78225079178810109 -0.26484140753746027 1.9181894063949587 -1.0151515007019041 0.22363352030515674 -0.51571667194366444 -0.11547173187136649 0.1574920788407326 -1.0000000180025095e-35 0.34572786092758184 -0.15670360624790189 0.07825136557221414 0.0066760552581399688 -0.90751361846923817 0.87716281414031994
decision_type=2 2 2 2 2 2 2 2 2 2 2 2 2 2 2 2 2 2 2 2 2 2 2 2 2 2 2 2 2 2
left_child=3 4 5 6 9 7 -1 -3 18 10 11 12 22 -12 15 16 -9 -6 -5 20 -4 -22 -2 -21 25 -25 27 -23 -8 -30
right_child=1 2 19 8 17 -7 28 14 -10 -11 13 -13 -14 -15 -16 -17 -18 -19 -20 23 21 26 -24 24 -26 -27 -28 -29 29 -31
leaf_value=-0.049320976378708054 0.13348964366746779 -0.0076629587081084964 -0.057688653409679075 -0.017925423137220405 0.14170221708603759 0.0018594144576915346 0.026842224605344425 0.024826928634678988 -0.023980283075398637 0.020257283934956148 0.042752926980359401 -0.017322939918979856 0.032321874819404989 0.11618043008972617 0.0088368742915862376 0.1225722363042594 0.075138462284875585 0.065161358824081389 0.014698279041204807 0.042109271816039018 0.043288351061368455 -0.023340293055683092 0.061707679649111641 0.073784052159953373 -0.00084417719398553271 -0.00055725189592565553 -0.027271336127019399 0.023231006139203123 -0.026404326560075686 0.021248054976103367
leaf_weight=214 20 29 30 80 20 104 20 47 152 112 36 30 78 39 26 20 61 25 219 35 33 73 24 27 589 27 133 74 436 23
leaf_count=214 20 29 30 80 20 104 20 47 152 112 36 30 78 39 26 20 61 25 219 35 33 73 24 27 589 27 133 74 436 23
internal_value=0.00127608 0.0156794 0.00571993 -0.0200219 0.0495805 0.0293982 -0.0303552 0.0450118 -0.00412954 0.042908 0.0540478 0.0406194 0.054911 0.0811057 0.0549621 0.064278 0.0533331 0.0995292 0.00594974 -0.000933287 -0.0114199 -0.00695218 0.0946779 0.0043654 0.00229691 0.0365887 -0.0129046 6.9627e-05 -0.021863 -0.0240015
internal_weight=2836 1692 1308 1144 384 287 693 183 451 339 227 152 122 75 154 128 108 45 299 1021 343 313 44 678 643 54 280 147 479 459
internal_count=2836 1692 1308 1144 384 287 693 183 451 339 227 152 122 75 154 128 108 45 299 1021 343 313 44 678 643 54 280 147 479 459
is_linear=0
shrinkage=0.05


Tree=33
num_leaves=31
num_cat=0
split_feature=7 10 13 0 13 10 13 19 13 12 12 10 15 13 19 12 2 19 2 5 11 9 10 13 12 15 6 13 21 0
split_gain=314.154 206.232 74.4781 67.7534 44.7103 44.6806 45.0708 40.3977 35.3775 53.564 40.1824 32.6209 25.8393 24.2464 41.3578 24.092 23.1802 24.101 22.8955 33.1622 32.3039 22.4448 39.497 21.9411 21.4962 20.6229 16.7579 16.7492 16.5833 25.6732
threshold=-0.19723618775606153 -0.56516990065574635 -0.7026517093181609 -1.0000000180025095e-35 -1.4115942120552061 0.21685235202312472 -0.78225079178810109 -0.90169855952262867 -0.94998976588249195 -0.86404100060462941 -1.1837658882141111 0.11407585814595224 0.83019903302192699 0.23413169384002688 -0.28352013230323786 1.2460893392562868 0.36538451910018926 -0.017437696456909176 -1.0000000180025095e-35 0.12262662127614023 0.58898004889488231 -0.076304361224174486 -0.20760044455528257 -0.71583575010299672 -0.31036975979804987 0.30127580463886267 -1.0047022700309751 -0.51514029502868641 0.2579334974288941 -1.0000000180025095e-35
decision_type=2 2 2 2 2 2 2 2 2 2 2 2 2 2 2 2 2 2 2 2 2 2 2 2 2 2 2 2 2 2
left_child=3 4 5 7 -2 6 16 26 24 10 -10 13 -7 14 23 18 17 -3 20 -20 -11 22 -18 -5 -6 27 -1 -4 -27 -30
right_child=1 2 25 11 8 12 -8 -9 9 15 -12 -13 -14 -15 -16 -17 21 -19 19 -21 -22 -23 -24 -25 -26 28 -28 -29 29 -31
leaf_value=-0.08030709771765876 0.11990759056895527 0.049121769966043498 -0.04138563975209817 -0.034326148210904898 -0.030704991315410348 -0.0078773576210059894 0.11337492648000119 -0.019368064417283989 0.053849168024757359 0.11282616624201852 0.14524588651987383 -0.022782057154382401 0.045394013625913082 -0.010013890279516258 0.085793567074472041 -0.0074776235024958714 0.079075760111157745 -0.018680662267211812 0.0065908015902899492 0.052172806621396908 0.044204584969611632 0.088660070063663138 -0.0011874453697958563 0.017910142626771281 0.038400121235346057 -0.037320008445783974 -0.039769229183863858 -0.0061905174723432717 0.053414412707196435 0.004373740465086158
leaf_weight=29 20 22 37 24 24 93 21 430 26 26 23 152 30 135 20 24 27 32 66 102 52 27 35 120 21 22 234 391 28 543
leaf_count=29 20 22 37 24 24 93 21 430 26 26 23 152 30 135 20 24 27 32 66 102 52 27 35 120 21 22 234 391 28 543
internal_value=0.00121446 0.0148994 0.00543546 -0.019021 0.0471131 0.0279348 0.0450159 -0.0288373 0.0430678 0.0489212 0.0970599 -0.00392336 0.00510136 0.00565136 0.0185753 0.0401337 0.03487 0.00888987 0.0448002 0.0343099 0.0672576 0.0505495 0.0337564 0.00915162 0.00144684 -0.000886267 -0.044287 -0.00925372 0.00514509 0.00679622
internal_weight=2836 1692 1308 1144 384 287 164 693 364 319 49 451 123 299 164 270 143 54 246 168 78 89 62 144 45 1021 263 428 593 571
internal_count=2836 1692 1308 1144 384 287 164 693 364 319 49 451 123 299 164 270 143 54 246 168 78 89 62 144 45 1021 263 428 593 571
is_linear=0
shrinkage=0.05


Tree=34
num_leaves=31
num_cat=0
split_feature=7 10 0 13 3 11 13 6 9 13 8 20 11 10 17 24 11 13 13 13 9 11 10 20 13 20 10 6 13 17
split_gain=283.603 186.752 61.1548 39.4553 37.1039 31.404 36.8074 45.1218 56.4428 33.1399 80.1603 32.7394 39.4487 46.8902 29.7692 24.6233 24.9439 23.4339 24.9982 22.2904 20.1552 20.1199 18.5776 18.4156 23.3455 17.834 17.5226 16.86 16.836 19.2404
threshold=-0.19723618775606153 -0.37547868490219111 -1.0000000180025095e-35 -0.59995815157890309 -0.84999993443489064 1.1431703567504885 0.25769194960594183 -0.20846399664878842 0.17178188264369967 -0.65492588281631459 0.96485701203346264 1.4389053583145144 0.33904962241649633 -1.1305114626884458 0.67625808715820324 0.6366906762123109 0.6088845729827882 0.23413169384002688 0.11062349751591684 -0.11523048952221869 0.065276380628347411 1.3685970306396487 0.66433259844779979 0.57407015562057506 -0.51514029502868641 -0.028823714703321453 -0.61683884263038624 -1.0047022700309751 1.0000000180025095e-35 -0.20485119521617887
decision_type=2 2 2 2 2 2 2 2 2 2 2 2 2 2 2 2 2 2 2 2 2 2 2 2 2 2 2 2 2 2
left_child=2 5 4 22 27 9 7 -7 21 10 15 12 13 -11 17 16 -2 18 -4 26 -15 -9 -3 24 -5 -21 -14 -1 29 -26
right_child=1 3 14 23 -6 6 -8 8 -10 11 -12 -13 19 20 -16 -17 -18 -19 -20 25 -22 -23 -24 -25 28 -27 -28 -29 -30 -31
leaf_value=-0.076305541170831395 0.020502955048719299 0.026085659091627373 0.0072110966789210142 -0.05023003920566204 -0.016557320223487583 -0.011387517763865936 0.12307827534589599 0.083767320930418387 0.13956985309794173 0.12031594629014902 0.13209583693722771 -0.031420081404160215 0.0093391018409798628 0.057776387426961784 -0.030368749481066628 -0.014093540831388932 0.090892556210829742 -0.011961269692185913 0.061448646457363455 0.069943274412100284 0.0090758733358466421 0.025769908499435407 -0.004935067815385278 0.0073679496242805235 0.040456814316644413 0.014407376614583415 -0.044302178356657382 -0.036146221392059967 -0.012780185742879775 -0.00069015188564114664
leaf_weight=29 32 226 183 30 370 24 20 22 20 20 26 25 41 46 85 22 21 159 24 20 40 48 61 340 33 53 24 294 299 199
leaf_count=29 32 226 183 30 370 24 20 22 20 20 26 25 41 46 85 22 21 159 24 20 40 48 61 340 33 53 24 294 299 199
internal_value=0.00115524 0.0141578 -0.0180711 0.00333264 -0.0273971 0.0396588 0.0604443 0.0493138 0.065551 0.0321032 0.0565501 0.0228881 0.0284835 0.0514212 -0.00372679 0.0301533 0.048606 0.0024535 0.0135503 0.0108041 0.0352199 0.0441625 0.0194756 -0.00180549 -0.00737438 0.029766 -0.0104277 -0.0397898 -0.00493474 0.00515602
internal_weight=2836 1692 1144 1188 693 504 134 114 90 370 101 269 244 106 451 75 53 366 207 138 86 70 287 901 561 73 65 323 531 232
internal_count=2836 1692 1144 1188 693 504 134 114 90 370 101 269 244 106 451 75 53 366 207 138 86 70 287 901 561 73 65 323 531 232
is_linear=0
shrinkage=0.05


Tree=35
num_leaves=31
num_cat=0
split_feature=7 10 20 20 13 15 13 11 12 17 13 11 17 10 16 14 17 4 20 16 4 12 10 9 15 20 9 9 12 2
split_gain=289.556 185.385 58.439 58.1269 43.918 38.4992 42.1457 43.3234 43.1953 36.3381 51.9642 42.5865 34.3139 29.9301 35.3488 26.2748 22.9469 22.3812 27.7094 21.4131 20.4688 20.1773 24.9202 19.9693 29.1856 19.5326 21.5041 19.1426 23.2007 18.8184
